{"learner":{"attributes":{"scikit_learn":"{\"_estimator_type\": \"regressor\"}"},"feature_names":["revenue","ebitda","operating_margin","revenue_growth_yoy","dscr","interest_coverage","current_ratio","debt_equity_ratio","net_worth","total_debt","collateral_coverage","collateral_value","gstr_mismatch_pct","circular_trading_risk","cibil_score","overdue_accounts","dpd_90_plus","credit_utilization","suit_filed_accounts","litigation_count","negative_news_count","positive_news_count","officer_severity_score","sector_risk_score"],"feature_types":["float","float","float","float","float","float","float","float","float","float","float","float","float","float","int","int","int","float","int","int","int","int","float","float"],"gradient_booster":{"model":{"cats":{"enc":[],"feature_segments":[],"sorted_idx":[]},"gbtree_model_param":{"num_parallel_tree":"1","num_trees":"200"},"iteration_indptr":[0,1,2,3,4,5,6,7,8,9,10,11,12,13,14,15,16,17,18,19,20,21,22,23,24,25,26,27,28,29,30,31,32,33,34,35,36,37,38,39,40,41,42,43,44,45,46,47,48,49,50,51,52,53,54,55,56,57,58,59,60,61,62,63,64,65,66,67,68,69,70,71,72,73,74,75,76,77,78,79,80,81,82,83,84,85,86,87,88,89,90,91,92,93,94,95,96,97,98,99,100,101,102,103,104,105,106,107,108,109,110,111,112,113,114,115,116,117,118,119,120,121,122,123,124,125,126,127,128,129,130,131,132,133,134,135,136,137,138,139,140,141,142,143,144,145,146,147,148,149,150,151,152,153,154,155,156,157,158,159,160,161,162,163,164,165,166,167,168,169,170,171,172,173,174,175,176,177,178,179,180,181,182,183,184,185,186,187,188,189,190,191,192,193,194,195,196,197,198,199,200],"tree_info":[0,0,0,0,0,0,0,0,0,0,0,0,0,0,0,0,0,0,0,0,0,0,0,0,0,0,0,0,0,0,0,0,0,0,0,0,0,0,0,0,0,0,0,0,0,0,0,0,0,0,0,0,0,0,0,0,0,0,0,0,0,0,0,0,0,0,0,0,0,0,0,0,0,0,0,0,0,0,0,0,0,0,0,0,0,0,0,0,0,0,0,0,0,0,0,0,0,0,0,0,0,0,0,0,0,0,0,0,0,0,0,0,0,0,0,0,0,0,0,0,0,0,0,0,0,0,0,0,0,0,0,0,0,0,0,0,0,0,0,0,0,0,0,0,0,0,0,0,0,0,0,0,0,0,0,0,0,0,0,0,0,0,0,0,0,0,0,0,0,0,0,0,0,0,0,0,0,0,0,0,0,0,0,0,0,0,0,0,0,0,0,0,0,0,0,0,0,0,0,0],"trees":[{"base_weights":[1.5379305E-1,-2.322156E0,1.2337527E1,-5.8957915E0,5.886277E0,9.527185E0,2.8657036E1,-8.598643E0,2.2141733E0,3.5315647E0,1.527594E1,8.096122E0,2.385364E1,2.2851093E1,3.6751072E1,-1.2022909E1,-3.2049096E0,-1.8789473E0,8.236548E0,-2.758722E-1,8.733312E0,1.2138216E1,2.627385E1,6.5430293E0,2.3294317E1,1.2662253E1,2.551882E1,1.2295568E1,2.7425922E1,9.629013E-1,3.754621E1,-7.3916526E0,-1.4621921E1,-1.0514876E-1,-7.5512896E0,-5.455092E0,4.404029E0,1.4565145E1,3.638672E0,-1.5497141E0,1.3429422E1,6.2768264E0,1.6857735E1,1.5513456E1,6.0818844E0,2.7681713E1,6.2529945E-1,3.8456051E0,1.2010973E1,1.6270445E1,2.8765234E1,1.3813646E0,3.4526464E-1,7.971382E-1,2.6648967E0,5.5877724E0,1.9190035E0,2.876226E1,8.038697E-1,3.8279507E0,1.1073503E0,-1.1144464E0,-4.781828E-1,-1.5678487E0,-3.6325142E-1,-1.08640134E-1,1.1262257E0,-8.874571E-1,2.7508858E-1,3.0072656E-1,-8.626763E-1,-5.3932022E-2,7.8214324E-1,7.1055365E-1,1.7666788E0,-5.0058603E-2,1.1787237E0,4.0229413E-1,-4.359431E-1,1.3847743E-1,1.5084146E0,1.090557E0,2.3207907E-1,1.1744857E0,1.8670931E0,1.1892917E0,2.4184682E0,1.9795911E-1,1.3187512E0,9.564519E-1,2.889398E0,5.966528E-1,-1.8028514E-1,7.6921433E-1,1.6638737E0,1.8993256E0,9.0206844E-1,3.055518E0,1.8530026E-1,7.554327E-1,-2.0792771E-2,2.934212E0,8.002678E-1],"categories":[],"categories_nodes":[],"categories_segments":[],"categories_sizes":[],"default_left":[0,0,0,0,0,0,0,0,0,0,0,0,0,0,0,0,0,0,0,0,0,0,0,0,0,0,0,0,0,0,0,0,0,0,0,0,0,0,0,0,0,0,0,0,0,0,0,0,0,0,0,0,0,0,0,0,0,0,0,0,0,0,0,0,0,0,0,0,0,0,0,0,0,0,0,0,0,0,0,0,0,0,0,0,0,0,0,0,0,0,0,0,0,0,0,0,0,0,0,0,0,0,0],"id":0,"left_children":[1,3,5,7,9,11,13,15,17,19,21,23,25,27,29,31,33,35,37,39,41,43,45,47,49,51,53,55,57,-1,59,61,63,65,67,69,71,73,75,77,79,81,83,85,87,89,-1,91,93,95,97,-1,-1,-1,-1,99,-1,101,-1,-1,-1,-1,-1,-1,-1,-1,-1,-1,-1,-1,-1,-1,-1,-1,-1,-1,-1,-1,-1,-1,-1,-1,-1,-1,-1,-1,-1,-1,-1,-1,-1,-1,-1,-1,-1,-1,-1,-1,-1,-1,-1,-1,-1],"loss_changes":[7.233728E4,5.8497258E4,1.8301652E4,3.0465965E4,1.3322578E4,6.9210977E3,1.9328164E3,1.9206773E4,8.593783E3,9.607992E3,3.8565996E3,7.330119E3,2.5458008E2,1.4495039E3,1.3448047E2,7.559289E3,5.4691377E3,4.6975415E3,4.049834E3,4.9266157E3,3.9854795E3,1.86804E3,5.5975977E2,4.216376E3,6.463613E2,1.5929626E1,3.0318164E2,4.939773E2,4.1648438E2,0E0,3.1816406E0,2.209164E3,4.6687266E3,2.666958E3,2.328336E3,3.5956384E3,1.2881178E3,1.2395537E3,2.8054087E3,4.0571943E3,4.574453E2,2.8862148E3,2.1643457E2,1.6274395E3,1.0232715E3,2.5075E2,0E0,2.346845E3,1.7707334E3,1.24763916E2,6.6595215E2,0E0,0E0,0E0,0E0,9.2751236E1,0E0,4.205078E1,0E0,0E0,0E0,0E0,0E0,0E0,0E0,0E0,0E0,0E0,0E0,0E0,0E0,0E0,0E0,0E0,0E0,0E0,0E0,0E0,0E0,0E0,0E0,0E0,0E0,0E0,0E0,0E0,0E0,0E0,0E0,0E0,0E0,0E0,0E0,0E0,0E0,0E0,0E0,0E0,0E0,0E0,0E0,0E0,0E0],"parents":[2147483647,0,0,1,1,2,2,3,3,4,4,5,5,6,6,7,7,8,8,9,9,10,10,11,11,12,12,13,13,14,14,15,15,16,16,17,17,18,18,19,19,20,20,21,21,22,22,23,23,24,24,25,25,26,26,27,27,28,28,30,30,31,31,32,32,33,33,34,34,35,35,36,36,37,37,38,38,39,39,40,40,41,41,42,42,43,43,44,44,45,45,47,47,48,48,49,49,50,50,55,55,57,57],"right_children":[2,4,6,8,10,12,14,16,18,20,22,24,26,28,30,32,34,36,38,40,42,44,46,48,50,52,54,56,58,-1,60,62,64,66,68,70,72,74,76,78,80,82,84,86,88,90,-1,92,94,96,98,-1,-1,-1,-1,100,-1,102,-1,-1,-1,-1,-1,-1,-1,-1,-1,-1,-1,-1,-1,-1,-1,-1,-1,-1,-1,-1,-1,-1,-1,-1,-1,-1,-1,-1,-1,-1,-1,-1,-1,-1,-1,-1,-1,-1,-1,-1,-1,-1,-1,-1,-1],"split_conditions":[1E0,1.3625015E1,3.3419092E0,2.364654E0,2.875423E0,2E0,4.6347237E0,1E0,1E0,1E0,5.016825E0,2E0,1.220928E1,5.674925E0,2.8457644E0,2.5207872E0,1.1459163E1,3.7123477E0,7.330902E0,1E0,2.3956625E1,1.271508E1,2.1361566E0,1.1884209E1,1.5726384E1,1.6290233E7,2.343549E0,6.0728127E1,2.0958853E1,9.629013E-1,1.8311401E1,5.122274E0,1E0,1E0,1E0,2.9327736E0,4.071417E0,3.8481789E0,3.5654569E0,-3.819936E-1,1.4832056E1,6.2829146E0,2.8258404E1,4.007666E1,1E0,5.0003405E0,6.2529945E-1,1.6471836E1,1.5139306E0,1.8867367E1,3.9325302E1,1.3813646E0,3.4526464E-1,7.971382E-1,2.6648967E0,1.636334E0,1.9190035E0,6.3418365E1,8.038697E-1,3.8279507E0,1.1073503E0,-1.1144464E0,-4.781828E-1,-1.5678487E0,-3.6325142E-1,-1.08640134E-1,1.1262257E0,-8.874571E-1,2.7508858E-1,3.0072656E-1,-8.626763E-1,-5.3932022E-2,7.8214324E-1,7.1055365E-1,1.7666788E0,-5.0058603E-2,1.1787237E0,4.0229413E-1,-4.359431E-1,1.3847743E-1,1.5084146E0,1.090557E0,2.3207907E-1,1.1744857E0,1.8670931E0,1.1892917E0,2.4184682E0,1.9795911E-1,1.3187512E0,9.564519E-1,2.889398E0,5.966528E-1,-1.8028514E-1,7.6921433E-1,1.6638737E0,1.8993256E0,9.0206844E-1,3.055518E0,1.8530026E-1,7.554327E-1,-2.0792771E-2,2.934212E0,8.002678E-1],"split_indices":[16,12,7,7,7,16,7,15,15,15,7,15,22,12,13,3,3,7,3,18,12,3,6,12,13,0,12,17,3,0,3,12,18,18,18,3,12,12,7,3,12,3,12,22,15,22,0,3,7,3,13,0,0,0,0,6,0,23,0,0,0,0,0,0,0,0,0,0,0,0,0,0,0,0,0,0,0,0,0,0,0,0,0,0,0,0,0,0,0,0,0,0,0,0,0,0,0,0,0,0,0,0,0],"split_type":[0,0,0,0,0,0,0,0,0,0,0,0,0,0,0,0,0,0,0,0,0,0,0,0,0,0,0,0,0,0,0,0,0,0,0,0,0,0,0,0,0,0,0,0,0,0,0,0,0,0,0,0,0,0,0,0,0,0,0,0,0,0,0,0,0,0,0,0,0,0,0,0,0,0,0,0,0,0,0,0,0,0,0,0,0,0,0,0,0,0,0,0,0,0,0,0,0,0,0,0,0,0,0],"sum_hessian":[2.396E3,1.992E3,4.04E2,1.388E3,6.04E2,3.46E2,5.8E1,1.041E3,3.47E2,4.84E2,1.2E2,3.16E2,3E1,3.6E1,2.2E1,6.36E2,4.05E2,2.07E2,1.4E2,2.8E2,2.04E2,9.5E1,2.5E1,2.88E2,2.8E1,5E0,2.5E1,1.2E1,2.4E1,1E0,2.1E1,2.3E2,4.06E2,2.37E2,1.68E2,1.32E2,7.5E1,5.8E1,8.2E1,2.57E2,2.3E1,1.58E2,4.6E1,6E1,3.5E1,2.3E1,2E0,1.94E2,9.4E1,1.4E1,1.4E1,4E0,1E0,2E0,2.3E1,7E0,5E0,2.2E1,2E0,2E1,1E0,9.3E1,1.37E2,3.7E2,3.6E1,2.19E2,1.8E1,1.49E2,1.9E1,3.6E1,9.6E1,3.1E1,4.4E1,1.8E1,4E1,5.5E1,2.7E1,8.6E1,1.71E2,3E0,2E1,7.2E1,8.6E1,1.4E1,3.2E1,4.4E1,1.6E1,2.3E1,1.2E1,2E0,2.1E1,1.41E2,5.3E1,5E1,4.4E1,9E0,5E0,1.3E1,1E0,5E0,2E0,2.1E1,1E0],"tree_param":{"num_deleted":"0","num_feature":"24","num_nodes":"103","size_leaf_vector":"1"}},{"base_weights":[9.604647E-3,-2.3303769E0,1.1121668E1,-5.9694037E0,3.9479039E0,8.795491E0,2.4438793E1,-8.945658E0,-1.0189205E-1,-2.9257092E-1,1.02657585E1,5.3292875E0,1.4873874E1,1.90874E1,3.3057747E1,-1.0089572E1,3.954E0,-3.5016835E0,5.226451E0,-3.0900722E0,5.972675E0,7.5071144E0,1.7667366E1,4.155153E0,1.796428E1,1.2364274E1,2.2659756E1,1.4005377E1,2.8565039E1,9.1475624E-1,3.3760726E0,-1.189539E1,-6.3873773E0,-3.0245082E0,5.9861155E0,-6.0921884E0,3.3705156E0,2.5239327E0,1.1337714E1,-6.250432E0,2.5862195E0,3.287789E0,1.6019463E1,5.4201508E0,1.5631851E1,1.9130169E1,4.32696E0,2.7729135E0,1.3777342E1,1.8746032E0,1.9463693E-1,9.844754E0,1.7104988E1,1.5860565E1,2.9297361E0,9.149347E0,2.067839E1,3.31365E0,1.770892E0,-1.3338543E0,-7.4955475E-1,-8.0797976E-1,-1.8062134E-1,3.2356486E-1,-5.380865E-1,3.8220564E-1,1.4909365E0,-4.9918267E-1,-1.4552583E0,5.416925E-1,-4.6305403E-1,5.252836E-2,8.715262E-1,7.0788854E-1,1.6881866E0,1.5376362E-1,-7.472153E-1,1.15685485E-1,9.668773E-1,-1.2067024E-1,5.883258E-1,2.2650376E-1,1.7579393E0,2.6385352E-1,9.3959314E-1,1.8919575E0,1.195037E0,2.2142184E0,1.3513178E0,1.2337176E0,-4.5486465E-1,-8.5232906E-2,5.1110363E-1,2.3990119E0,1.0203341E0,1.1673197E0,3.2870197E-1,1.7986453E0,-5.550932E-1,1.6631807E0,1.7603531E-1,1.076107E0,-2.4962933E-1,2.352684E0,5.240247E-1],"categories":[],"categories_nodes":[],"categories_segments":[],"categories_sizes":[],"default_left":[0,0,0,0,0,0,0,0,0,0,0,0,0,0,0,0,0,0,0,0,0,0,0,0,0,0,0,0,0,0,0,0,0,0,0,0,0,0,0,0,0,0,0,0,0,0,0,0,0,0,0,0,0,0,0,0,0,0,0,0,0,0,0,0,0,0,0,0,0,0,0,0,0,0,0,0,0,0,0,0,0,0,0,0,0,0,0,0,0,0,0,0,0,0,0,0,0,0,0,0,0,0,0,0,0],"id":1,"left_children":[1,3,5,7,9,11,13,15,17,19,21,23,25,27,29,31,33,35,37,39,41,43,45,47,49,51,53,55,57,-1,-1,59,61,63,65,67,69,71,73,75,77,79,81,83,85,87,89,91,93,-1,-1,95,97,99,-1,101,103,-1,-1,-1,-1,-1,-1,-1,-1,-1,-1,-1,-1,-1,-1,-1,-1,-1,-1,-1,-1,-1,-1,-1,-1,-1,-1,-1,-1,-1,-1,-1,-1,-1,-1,-1,-1,-1,-1,-1,-1,-1,-1,-1,-1,-1,-1,-1,-1],"loss_changes":[6.1884734E4,4.4940438E4,1.260993E4,2.1740777E4,1.934589E4,7.379131E3,2.182543E3,1.222843E4,7.626709E3,7.6076606E3,5.788707E3,3.292941E3,2.220877E3,1.5265605E3,6.095703E1,4.9983047E3,9.8242224E2,4.595768E3,2.679976E3,5.3979023E3,3.5619111E3,3.5269062E3,1.4393477E3,2.7415322E3,2.0143213E2,1.0140947E3,8.892373E2,7.181284E2,5.835547E1,0E0,0E0,3.1319922E3,1.9314727E3,2.5342914E2,9.66469E2,1.6682319E3,1.1875972E3,1.4184658E3,1.0610742E3,1.8478545E3,1.082158E3,1.2552877E3,5.6094824E2,1.866313E3,2.9436328E2,8.85084E2,6.9597705E2,1.5639886E3,7.042324E2,0E0,0E0,7.6498926E2,7.5886426E2,1.555918E2,0E0,3.6471472E2,3.6043604E2,0E0,0E0,0E0,0E0,0E0,0E0,0E0,0E0,0E0,0E0,0E0,0E0,0E0,0E0,0E0,0E0,0E0,0E0,0E0,0E0,0E0,0E0,0E0,0E0,0E0,0E0,0E0,0E0,0E0,0E0,0E0,0E0,0E0,0E0,0E0,0E0,0E0,0E0,0E0,0E0,0E0,0E0,0E0,0E0,0E0,0E0,0E0,0E0],"parents":[2147483647,0,0,1,1,2,2,3,3,4,4,5,5,6,6,7,7,8,8,9,9,10,10,11,11,12,12,13,13,14,14,15,15,16,16,17,17,18,18,19,19,20,20,21,21,22,22,23,23,24,24,25,25,26,26,27,27,28,28,31,31,32,32,33,33,34,34,35,35,36,36,37,37,38,38,39,39,40,40,41,41,42,42,43,43,44,44,45,45,46,46,47,47,48,48,51,51,52,52,53,53,55,55,56,56],"right_children":[2,4,6,8,10,12,14,16,18,20,22,24,26,28,30,32,34,36,38,40,42,44,46,48,50,52,54,56,58,-1,-1,60,62,64,66,68,70,72,74,76,78,80,82,84,86,88,90,92,94,-1,-1,96,98,100,-1,102,104,-1,-1,-1,-1,-1,-1,-1,-1,-1,-1,-1,-1,-1,-1,-1,-1,-1,-1,-1,-1,-1,-1,-1,-1,-1,-1,-1,-1,-1,-1,-1,-1,-1,-1,-1,-1,-1,-1,-1,-1,-1,-1,-1,-1,-1,-1,-1,-1],"split_conditions":[1E0,1.1884209E1,3.3419092E0,2.0339613E0,1E0,1E0,4.6347237E0,2E0,1E0,2.0232422E1,2.3963656E0,2E0,2E0,1.4082031E1,2.8457644E0,1E0,3.3604808E0,3.7488036E0,3.5133536E0,2.2395256E0,2.9299917E0,2.3956625E1,3E0,1.9340597E1,3.021174E0,1.0951856E1,3.3239758E1,6.0728127E1,1.3591183E7,9.1475624E-1,3.3760726E0,1E0,1.5139306E0,1.4219967E0,3E0,3E0,4.9548225E0,3.8929382E1,7.1262636E0,1.16387695E5,4.145376E0,2.3349138E1,2.2221636E1,3.393407E1,1.7216856E1,1.1101516E6,6.0449776E1,1.2105577E0,6.13E2,1.8746032E0,1.9463693E-1,3.6413865E0,4E0,6.962225E0,2.9297361E0,3E0,4.2167387E0,3.31365E0,1.770892E0,-1.3338543E0,-7.4955475E-1,-8.0797976E-1,-1.8062134E-1,3.2356486E-1,-5.380865E-1,3.8220564E-1,1.4909365E0,-4.9918267E-1,-1.4552583E0,5.416925E-1,-4.6305403E-1,5.252836E-2,8.715262E-1,7.0788854E-1,1.6881866E0,1.5376362E-1,-7.472153E-1,1.15685485E-1,9.668773E-1,-1.2067024E-1,5.883258E-1,2.2650376E-1,1.7579393E0,2.6385352E-1,9.3959314E-1,1.8919575E0,1.195037E0,2.2142184E0,1.3513178E0,1.2337176E0,-4.5486465E-1,-8.5232906E-2,5.1110363E-1,2.3990119E0,1.0203341E0,1.1673197E0,3.2870197E-1,1.7986453E0,-5.550932E-1,1.6631807E0,1.7603531E-1,1.076107E0,-2.4962933E-1,2.352684E0,5.240247E-1],"split_indices":[16,12,7,7,15,15,7,15,15,12,7,16,15,12,13,15,12,7,7,7,7,12,21,12,6,12,22,17,0,0,0,19,7,5,15,21,5,22,12,1,7,12,17,22,13,1,17,7,14,0,0,5,21,5,0,21,7,0,0,0,0,0,0,0,0,0,0,0,0,0,0,0,0,0,0,0,0,0,0,0,0,0,0,0,0,0,0,0,0,0,0,0,0,0,0,0,0,0,0,0,0,0,0,0,0],"split_type":[0,0,0,0,0,0,0,0,0,0,0,0,0,0,0,0,0,0,0,0,0,0,0,0,0,0,0,0,0,0,0,0,0,0,0,0,0,0,0,0,0,0,0,0,0,0,0,0,0,0,0,0,0,0,0,0,0,0,0,0,0,0,0,0,0,0,0,0,0,0,0,0,0,0,0,0,0,0,0,0,0,0,0,0,0,0,0,0,0,0,0,0,0,0,0,0,0,0,0,0,0,0,0,0,0],"sum_hessian":[2.378E3,1.965E3,4.13E2,1.244E3,7.21E2,3.53E2,6E1,8.25E2,4.19E2,4.32E2,2.89E2,2.26E2,1.27E2,3.9E1,2.1E1,7.58E2,6.7E1,2.56E2,1.63E2,2.99E2,1.33E2,2.12E2,7.7E1,2.08E2,1.8E1,9.8E1,2.9E1,2.7E1,1.2E1,1E0,2E1,5.08E2,2.5E2,1.5E1,5.2E1,1.86E2,7E1,1.14E2,4.9E1,1.92E2,1.07E2,1.06E2,2.7E1,1.7E2,4.2E1,6.9E1,8E0,1.83E2,2.5E1,1.7E1,1E0,6.6E1,3.2E1,1.6E1,1.3E1,1.7E1,1E1,7E0,5E0,3.81E2,1.27E2,1.82E2,6.8E1,4E0,1.1E1,4.3E1,9E0,1.66E2,2E1,5.6E1,1.4E1,8.7E1,2.7E1,2.9E1,2E1,2.6E1,1.66E2,9E1,1.7E1,3.9E1,6.7E1,3E0,2.4E1,1.01E2,6.9E1,2E1,2.2E1,4.3E1,2.6E1,4E0,4E0,7.2E1,1.11E2,5E0,2E1,5.1E1,1.5E1,3.1E1,1E0,1.5E1,1E0,1.5E1,2E0,8E0,2E0],"tree_param":{"num_deleted":"0","num_feature":"24","num_nodes":"105","size_leaf_vector":"1"}},{"base_weights":[6.373716E-2,-2.0578842E0,1.0247364E1,-5.24129E0,3.4552205E0,6.0986943E0,1.4208053E1,-6.465806E0,5.0730033E0,1.6963226E0,1.1218647E1,7.717099E0,-2.1251037E0,1.9403921E1,1.0561197E1,-3.9877067E0,-1.0365469E1,1.4713608E1,1.9987649E0,5.461646E0,-1.7332963E0,1.5239327E1,8.0966015E0,1.040151E1,2.6670604E0,7.716159E-1,-9.154392E0,2.1998537E1,1.3015541E1,1.3600788E1,2.9643116E0,-1.0291908E-1,-6.599476E0,-1.2362521E1,-6.7401743E0,1.7240057E1,7.4314156E0,1.1547689E1,4.7422883E-1,4.361342E0,1.7062346E1,8.7446207E-1,-7.799428E0,3.1390572E0,1.6093328E1,5.2435136E0,1.5455145E1,1.939138E1,7.9336863E0,2.9064295E-1,7.405363E0,-6.8086934E0,3.52375E0,-4.3026352E-1,-1.2831839E0,1.1360576E1,2.4199726E1,1.3951204E1,4.1476793E0,1.1756747E1,2.347697E1,4.2585306E0,-8.777626E-1,2.1214406E-1,-4.80041E-1,-4.9411622E-1,-1.0952853E0,-1.4318604E0,-9.5888615E-1,-8.8216656E-1,-4.833076E-2,5.885934E-1,1.8041118E0,7.1489625E-2,1.0207796E0,7.041333E-1,1.6382611E0,3.4874415E-1,-2.8303114E-1,9.0179455E-1,2.3672771E-1,2.2464845E0,1.0762937E0,5.6202314E-3,9.917656E-1,-1.1418637E0,-3.853309E-1,7.379946E-1,-2.1481846E-1,1.1668334E0,1.8421557E0,-3.6779258E-1,6.365211E-1,4.0105113E-1,1.5826851E0,6.489042E-1,2.463059E0,5.8751863E-1,1.5100071E0,1.0585464E0,-5.087188E-2,9.266941E-1,-2.3576842E-1,-8.3903086E-1,1.3405E-1,-6.7460775E-1,4.4690782E-1,4.1601047E-1,-3.3470878E-1,1.5677891E0,2.1807556E-1,2.1776912E0,3.5279503E0,1.4322747E0,2.7028638E-1,8.867722E-2,6.9652003E-1,1.4854535E0,8.357505E-1,7.849566E-1,2.7380235E0,1.4580816E-1,1.1875546E0],"categories":[],"categories_nodes":[],"categories_segments":[],"categories_sizes":[],"default_left":[0,0,0,0,0,0,0,0,0,0,0,0,0,0,0,0,0,0,0,0,0,0,0,0,0,0,0,0,0,0,0,0,0,0,0,0,0,0,0,0,0,0,0,0,0,0,0,0,0,0,0,0,0,0,0,0,0,0,0,0,0,0,0,0,0,0,0,0,0,0,0,0,0,0,0,0,0,0,0,0,0,0,0,0,0,0,0,0,0,0,0,0,0,0,0,0,0,0,0,0,0,0,0,0,0,0,0,0,0,0,0,0,0,0,0,0,0,0,0,0,0,0,0],"id":2,"left_children":[1,3,5,7,9,11,13,15,17,19,21,23,25,27,29,31,33,35,37,39,41,43,45,47,49,51,53,55,57,59,61,63,65,67,69,71,73,75,77,79,81,83,85,87,89,91,93,95,97,99,101,103,105,107,-1,109,111,113,115,117,119,121,-1,-1,-1,-1,-1,-1,-1,-1,-1,-1,-1,-1,-1,-1,-1,-1,-1,-1,-1,-1,-1,-1,-1,-1,-1,-1,-1,-1,-1,-1,-1,-1,-1,-1,-1,-1,-1,-1,-1,-1,-1,-1,-1,-1,-1,-1,-1,-1,-1,-1,-1,-1,-1,-1,-1,-1,-1,-1,-1,-1,-1],"loss_changes":[5.1378074E4,3.455739E4,6.650301E3,1.5795066E4,9.826279E3,2.7049053E3,3.7553281E3,1.0743414E4,3.9123806E3,7.615592E3,1.5461289E3,2.263287E3,6.993675E2,1.1225859E3,2.8461113E3,6.939301E3,3.0515508E3,4.606211E2,1.4794072E3,3.5123516E3,4.8948936E3,5.38499E2,1.5355425E3,2.2865518E3,6.734588E2,5.4554285E2,3.1530414E2,1.1066328E3,1.661626E2,1.3448633E3,5.9965533E2,2.8940828E3,2.8985586E3,1.3709961E3,2.0274209E3,1.0300391E2,1.7917859E2,1.896748E2,8.960686E2,2.374329E3,5.7499316E2,1.6051733E3,1.2842104E3,1.2796651E2,3.3107812E2,5.938186E2,2.5861328E1,1.3949258E3,1.2094604E3,3.4278574E2,3.8534204E2,1.0146942E2,2.1460754E2,6.748142E1,0E0,4.413966E2,5.2024414E2,6.1589355E1,3.057415E1,6.866738E2,5.780498E2,7.0794055E2,0E0,0E0,0E0,0E0,0E0,0E0,0E0,0E0,0E0,0E0,0E0,0E0,0E0,0E0,0E0,0E0,0E0,0E0,0E0,0E0,0E0,0E0,0E0,0E0,0E0,0E0,0E0,0E0,0E0,0E0,0E0,0E0,0E0,0E0,0E0,0E0,0E0,0E0,0E0,0E0,0E0,0E0,0E0,0E0,0E0,0E0,0E0,0E0,0E0,0E0,0E0,0E0,0E0,0E0,0E0,0E0,0E0,0E0,0E0,0E0,0E0],"parents":[2147483647,0,0,1,1,2,2,3,3,4,4,5,5,6,6,7,7,8,8,9,9,10,10,11,11,12,12,13,13,14,14,15,15,16,16,17,17,18,18,19,19,20,20,21,21,22,22,23,23,24,24,25,25,26,26,27,27,28,28,29,29,30,30,31,31,32,32,33,33,34,34,35,35,36,36,37,37,38,38,39,39,40,40,41,41,42,42,43,43,44,44,45,45,46,46,47,47,48,48,49,49,50,50,51,51,52,52,53,53,55,55,56,56,57,57,58,58,59,59,60,60,61,61],"right_children":[2,4,6,8,10,12,14,16,18,20,22,24,26,28,30,32,34,36,38,40,42,44,46,48,50,52,54,56,58,60,62,64,66,68,70,72,74,76,78,80,82,84,86,88,90,92,94,96,98,100,102,104,106,108,-1,110,112,114,116,118,120,122,-1,-1,-1,-1,-1,-1,-1,-1,-1,-1,-1,-1,-1,-1,-1,-1,-1,-1,-1,-1,-1,-1,-1,-1,-1,-1,-1,-1,-1,-1,-1,-1,-1,-1,-1,-1,-1,-1,-1,-1,-1,-1,-1,-1,-1,-1,-1,-1,-1,-1,-1,-1,-1,-1,-1,-1,-1,-1,-1,-1,-1],"split_conditions":[1E0,1.1884209E1,8.389047E0,1E0,2.4251337E1,2.153137E1,3.6433778E0,1.24271145E1,-5.031513E0,6.6068826E0,1.026273E1,1.5345646E1,1.5106496E1,7.64E2,1.715299E1,9.620142E0,3.0963787E1,1.4057591E1,2.929357E0,1E0,1.6150345E1,5.939036E0,3.3440147E1,-1.2248884E1,1.8472583E0,9.678968E6,8.482415E6,6.7754125E6,1.5691974E8,2.6118656E1,3.3222385E1,2E0,2E0,5.2286724E1,1E0,5.83E2,1.4866756E1,6.3928212E7,1.208355E1,6.5708556E0,4.7970768E1,1E0,2.3847584E1,1.4875835E1,2.6881289E1,7.9081485E6,6.0127556E-1,3.453815E1,1E0,1.2276365E5,3.566499E0,1.0618967E1,5.13E2,1.2275444E6,-1.2831839E0,1.9971627E0,2.1652527E1,3.8812308E0,2.3966272E6,1.563943E1,4.67563E1,1.6410332E1,-8.777626E-1,2.1214406E-1,-4.80041E-1,-4.9411622E-1,-1.0952853E0,-1.4318604E0,-9.5888615E-1,-8.8216656E-1,-4.833076E-2,5.885934E-1,1.8041118E0,7.1489625E-2,1.0207796E0,7.041333E-1,1.6382611E0,3.4874415E-1,-2.8303114E-1,9.0179455E-1,2.3672771E-1,2.2464845E0,1.0762937E0,5.6202314E-3,9.917656E-1,-1.1418637E0,-3.853309E-1,7.379946E-1,-2.1481846E-1,1.1668334E0,1.8421557E0,-3.6779258E-1,6.365211E-1,4.0105113E-1,1.5826851E0,6.489042E-1,2.463059E0,5.8751863E-1,1.5100071E0,1.0585464E0,-5.087188E-2,9.266941E-1,-2.3576842E-1,-8.3903086E-1,1.3405E-1,-6.7460775E-1,4.4690782E-1,4.1601047E-1,-3.3470878E-1,1.5677891E0,2.1807556E-1,2.1776912E0,3.5279503E0,1.4322747E0,2.7028638E-1,8.867722E-2,6.9652003E-1,1.4854535E0,8.357505E-1,7.849566E-1,2.7380235E0,1.4580816E-1,1.1875546E0],"split_indices":[16,12,12,18,12,3,3,3,3,3,2,2,2,14,2,2,22,2,2,18,2,22,12,3,4,9,8,9,8,12,3,21,21,17,19,14,2,8,3,2,23,18,22,3,12,9,10,17,19,1,5,2,14,1,0,4,12,4,1,3,23,12,0,0,0,0,0,0,0,0,0,0,0,0,0,0,0,0,0,0,0,0,0,0,0,0,0,0,0,0,0,0,0,0,0,0,0,0,0,0,0,0,0,0,0,0,0,0,0,0,0,0,0,0,0,0,0,0,0,0,0,0,0],"split_type":[0,0,0,0,0,0,0,0,0,0,0,0,0,0,0,0,0,0,0,0,0,0,0,0,0,0,0,0,0,0,0,0,0,0,0,0,0,0,0,0,0,0,0,0,0,0,0,0,0,0,0,0,0,0,0,0,0,0,0,0,0,0,0,0,0,0,0,0,0,0,0,0,0,0,0,0,0,0,0,0,0,0,0,0,0,0,0,0,0,0,0,0,0,0,0,0,0,0,0,0,0,0,0,0,0,0,0,0,0,0,0,0,0,0,0,0,0,0,0,0,0,0,0],"sum_hessian":[2.376E3,1.967E3,4.09E2,1.247E3,7.2E2,2.01E2,2.08E2,1.115E3,1.32E2,5.88E2,1.32E2,1.68E2,3.3E1,8.4E1,1.24E2,6.83E2,4.32E2,3.1E1,1.01E2,2.8E2,3.08E2,5.6E1,7.6E1,1.09E2,5.9E1,2.4E1,9E0,5.8E1,2.6E1,8.8E1,3.6E1,2.75E2,4.08E2,2.77E2,1.55E2,2.2E1,9E0,1.3E1,8.8E1,2.57E2,2.3E1,2.16E2,9.2E1,4E0,5.2E1,5.6E1,2E1,2.2E1,8.7E1,4E1,1.9E1,6E0,1.8E1,3E0,6E0,1.1E1,4.7E1,2.3E1,3E0,7.6E1,1.2E1,3.3E1,3E0,1.87E2,8.8E1,2.97E2,1.11E2,1.6E2,1.17E2,1.16E2,3.9E1,2E0,2E1,3E0,6E0,8E0,5E0,4.6E1,4.2E1,7.6E1,1.81E2,1.1E1,1.2E1,1.99E2,1.7E1,4.7E1,4.5E1,2E0,2E0,2E1,3.2E1,6E0,5E1,1E0,1.9E1,7E0,1.5E1,6.9E1,1.8E1,2E0,3.8E1,1.6E1,3E0,5E0,1E0,1E0,1.7E1,1E0,2E0,7E0,4E0,4.1E1,6E0,2.2E1,1E0,2E0,1E0,3.8E1,3.8E1,3E0,9E0,2.5E1,8E0],"tree_param":{"num_deleted":"0","num_feature":"24","num_nodes":"123","size_leaf_vector":"1"}},{"base_weights":[-4.610618E-2,-3.4289083E0,5.2914133E0,-5.298586E0,5.364572E0,3.2125716E0,1.4939928E1,-8.850593E0,-1.2662103E0,2.2439764E0,1.2233001E1,-5.268885E-1,8.507891E0,1.2970943E1,2.7917635E1,-1.0340982E1,1.0265065E0,-4.644329E0,3.2430952E0,4.222975E0,-4.159413E0,9.932188E0,2.7575548E1,-3.17214E0,5.8138022E0,6.8618736E0,1.9239582E1,9.623249E0,1.8179323E1,1.3386132E0,2.9595879E1,-6.3490357E0,-1.253391E1,-2.5597956E0,4.6723385E0,-1.1662295E0,-7.678518E0,1.0408593E0,9.623545E0,9.234057E0,1.934438E0,-1.3451919E1,-9.358682E-1,7.8190303E0,1.5837272E1,1.2424308E0,3.2294033E0,-4.960879E0,3.9490612E0,9.846047E0,2.0972178E0,4.8856125E0,1.2922248E1,2.18239E1,1.2512094E1,1.343637E1,5.24477E0,1.9584967E1,3.2014816E0,8.2268375E-1,3.036895E0,-7.402472E-1,1.0666257E-1,-1.4125832E0,-8.26451E-1,-5.202629E-1,4.1425467E-1,2.6959676E-1,1.0924767E0,-3.922924E-1,2.9876226E-1,-9.488268E-1,-1.3334027E-1,5.764635E-1,-2.3366557E-1,1.1943384E0,2.643778E-1,1.1568956E0,3.5711256E-1,9.296069E-2,1.2871379E0,-9.852066E-2,-1.460007E0,-4.1425568E-1,4.3161568E-1,5.645989E-1,1.1972172E0,1.7462133E0,-5.89269E-1,8.059785E-3,-7.678325E-1,-2.7293563E-1,6.766872E-1,1.536395E0,6.58991E-1,6.5855986E-1,-1.3475876E-1,3.123717E-1,1.1541857E0,2.2865768E-1,1.4105251E0,2.3559742E0,8.779912E-1,-6.7811586E-2,1.3578888E0,1.6142529E0,4.9088246E-1,7.589182E-1,6.677245E-2,1.648125E0,2.5935133E0,-5.867163E-1,6.188643E-1],"categories":[],"categories_nodes":[],"categories_segments":[],"categories_sizes":[],"default_left":[0,0,0,0,0,0,0,0,0,0,0,0,0,0,0,0,0,0,0,0,0,0,0,0,0,0,0,0,0,0,0,0,0,0,0,0,0,0,0,0,0,0,0,0,0,0,0,0,0,0,0,0,0,0,0,0,0,0,0,0,0,0,0,0,0,0,0,0,0,0,0,0,0,0,0,0,0,0,0,0,0,0,0,0,0,0,0,0,0,0,0,0,0,0,0,0,0,0,0,0,0,0,0,0,0,0,0,0,0,0,0,0,0],"id":3,"left_children":[1,3,5,7,9,11,13,15,17,19,21,23,25,27,29,31,33,35,37,39,41,43,45,47,49,51,53,55,57,-1,59,61,63,65,67,69,71,73,75,77,79,81,83,85,87,-1,-1,89,91,93,95,97,99,101,103,105,107,109,111,-1,-1,-1,-1,-1,-1,-1,-1,-1,-1,-1,-1,-1,-1,-1,-1,-1,-1,-1,-1,-1,-1,-1,-1,-1,-1,-1,-1,-1,-1,-1,-1,-1,-1,-1,-1,-1,-1,-1,-1,-1,-1,-1,-1,-1,-1,-1,-1,-1,-1,-1,-1,-1,-1],"loss_changes":[4.365895E4,2.4361064E4,1.8766162E4,1.7477207E4,5.545283E3,1.5311146E4,3.879668E3,9.564375E3,8.743553E3,2.2985784E3,2.5854395E3,7.6332573E3,5.5206367E3,2.3707207E3,1.1596094E2,4.857703E3,1.136415E3,3.452498E3,3.4465918E3,1.5647275E3,1.2754675E3,7.7461084E2,3.1367822E2,4.1084785E3,1.987499E3,3.278418E3,4.5714844E2,1.448835E3,1.116293E3,0E0,4.751465E1,1.5859048E3,2.3504023E3,8.0093164E2,5.0190326E2,1.7751589E3,1.9968867E3,2.9491204E3,9.885171E2,5.272478E2,1.0430532E3,1.4306604E2,5.73653E2,4.287771E2,7.384463E2,0E0,0E0,3.5215034E3,1.2416726E3,1.0486445E3,1.1066481E3,2.4501982E3,8.233252E2,4.4977344E2,2.0620532E2,1.0284502E3,4.6707373E2,5.777207E2,1.9884679E2,0E0,0E0,0E0,0E0,0E0,0E0,0E0,0E0,0E0,0E0,0E0,0E0,0E0,0E0,0E0,0E0,0E0,0E0,0E0,0E0,0E0,0E0,0E0,0E0,0E0,0E0,0E0,0E0,0E0,0E0,0E0,0E0,0E0,0E0,0E0,0E0,0E0,0E0,0E0,0E0,0E0,0E0,0E0,0E0,0E0,0E0,0E0,0E0,0E0,0E0,0E0,0E0,0E0,0E0],"parents":[2147483647,0,0,1,1,2,2,3,3,4,4,5,5,6,6,7,7,8,8,9,9,10,10,11,11,12,12,13,13,14,14,15,15,16,16,17,17,18,18,19,19,20,20,21,21,22,22,23,23,24,24,25,25,26,26,27,27,28,28,30,30,31,31,32,32,33,33,34,34,35,35,36,36,37,37,38,38,39,39,40,40,41,41,42,42,43,43,44,44,47,47,48,48,49,49,50,50,51,51,52,52,53,53,54,54,55,55,56,56,57,57,58,58],"right_children":[2,4,6,8,10,12,14,16,18,20,22,24,26,28,30,32,34,36,38,40,42,44,46,48,50,52,54,56,58,-1,60,62,64,66,68,70,72,74,76,78,80,82,84,86,88,-1,-1,90,92,94,96,98,100,102,104,106,108,110,112,-1,-1,-1,-1,-1,-1,-1,-1,-1,-1,-1,-1,-1,-1,-1,-1,-1,-1,-1,-1,-1,-1,-1,-1,-1,-1,-1,-1,-1,-1,-1,-1,-1,-1,-1,-1,-1,-1,-1,-1,-1,-1,-1,-1,-1,-1,-1,-1,-1,-1,-1,-1,-1,-1],"split_conditions":[1E0,1E0,1E0,9.27635E0,2.1274872E0,1.1278073E1,3.965049E0,3.1244206E0,1.9305812E0,1.7627522E1,2E0,2.225986E0,3.2079206E0,1.071299E1,6.256639E-1,2.5207872E0,4.2826195E0,7.527222E0,2.0642763E1,1E0,7.5029283E0,1.5859042E1,8.064835E0,2E0,9.340929E0,2E0,2E0,8.132866E0,2.0297272E1,1.3386132E0,2.8457644E0,1E0,2.5214138E1,1E0,3.6114773E1,1E0,1.9725925E1,5.427566E0,1.4530867E1,3.297606E7,2E0,5.1856413E0,3.5728474E1,5.1115044E7,2.2018269E1,1.2424308E0,3.2294033E0,2.1818633E0,1.9831478E1,7.201429E0,1E0,2.3956625E1,6.434581E0,3.7015707E0,1.161389E6,1.8853899E1,1.8472583E0,2E0,2.1025919E1,8.2268375E-1,3.036895E0,-7.402472E-1,1.0666257E-1,-1.4125832E0,-8.26451E-1,-5.202629E-1,4.1425467E-1,2.6959676E-1,1.0924767E0,-3.922924E-1,2.9876226E-1,-9.488268E-1,-1.3334027E-1,5.764635E-1,-2.3366557E-1,1.1943384E0,2.643778E-1,1.1568956E0,3.5711256E-1,9.296069E-2,1.2871379E0,-9.852066E-2,-1.460007E0,-4.1425568E-1,4.3161568E-1,5.645989E-1,1.1972172E0,1.7462133E0,-5.89269E-1,8.059785E-3,-7.678325E-1,-2.7293563E-1,6.766872E-1,1.536395E0,6.58991E-1,6.5855986E-1,-1.3475876E-1,3.123717E-1,1.1541857E0,2.2865768E-1,1.4105251E0,2.3559742E0,8.779912E-1,-6.7811586E-2,1.3578888E0,1.6142529E0,4.9088246E-1,7.589182E-1,6.677245E-2,1.648125E0,2.5935133E0,-5.867163E-1,6.188643E-1],"split_indices":[15,16,16,12,7,12,7,7,7,2,16,7,7,12,12,3,7,3,12,21,13,12,12,15,3,15,21,3,2,0,13,18,13,19,22,20,12,3,2,8,16,13,22,8,2,0,0,3,22,2,21,12,13,5,0,2,4,15,2,0,0,0,0,0,0,0,0,0,0,0,0,0,0,0,0,0,0,0,0,0,0,0,0,0,0,0,0,0,0,0,0,0,0,0,0,0,0,0,0,0,0,0,0,0,0,0,0,0,0,0,0,0,0],"split_type":[0,0,0,0,0,0,0,0,0,0,0,0,0,0,0,0,0,0,0,0,0,0,0,0,0,0,0,0,0,0,0,0,0,0,0,0,0,0,0,0,0,0,0,0,0,0,0,0,0,0,0,0,0,0,0,0,0,0,0,0,0,0,0,0,0,0,0,0,0,0,0,0,0,0,0,0,0,0,0,0,0,0,0,0,0,0,0,0,0,0,0,0,0,0,0,0,0,0,0,0,0,0,0,0,0,0,0,0,0,0,0,0,0],"sum_hessian":[2.416E3,1.479E3,9.37E2,1.22E3,2.59E2,7.72E2,1.65E2,6.48E2,5.72E2,1.79E2,8E1,4.53E2,3.19E2,1.45E2,2E1,5.63E2,8.5E1,3.27E2,2.45E2,1.37E2,4.2E1,7.1E1,9E0,3.2E2,1.33E2,2.78E2,4.1E1,9E1,5.5E1,3E0,1.7E1,2.01E2,3.62E2,4.3E1,4.2E1,1.53E2,1.74E2,1.83E2,6.2E1,4.2E1,9.5E1,1E1,3.2E1,5.4E1,1.7E1,3E0,6E0,2.56E2,6.4E1,6.3E1,7E1,2.11E2,6.7E1,2.8E1,1.3E1,4.7E1,4.3E1,5E1,5E0,1E0,1.6E1,1.76E2,2.5E1,2.62E2,1E2,3.1E1,1.2E1,3.3E1,9E0,9.2E1,6.1E1,1.35E2,3.9E1,7.6E1,1.07E2,4.6E1,1.6E1,2.9E1,1.3E1,8.8E1,7E0,1E0,9E0,2E1,1.2E1,3.7E1,1.7E1,1.6E1,1E0,9E1,1.66E2,1.9E1,4.5E1,2.2E1,4.1E1,3E1,4E1,1.68E2,4.3E1,7E0,6E1,2.4E1,4E0,1E0,1.2E1,3.5E1,1.2E1,2.8E1,1.5E1,3.6E1,1.4E1,1E0,4E0],"tree_param":{"num_deleted":"0","num_feature":"24","num_nodes":"113","size_leaf_vector":"1"}},{"base_weights":[1.2280414E-1,-1.6274924E0,8.360908E0,-3.6656382E0,4.7261257E0,7.0827746E0,2.1124022E1,-6.27632E0,9.456298E-1,3.5546544E0,1.764059E1,5.6289077E0,1.696694E1,1.1005434E1,2.305385E1,-7.217897E0,2.0139885E0,-1.1815001E-1,1.0640034E1,2.5699759E0,1.5382093E1,2.0218601E1,4.801224E0,7.507082E0,4.485115E-1,1.8205687E1,-1.5203772E0,1.3463898E-1,1.2192957E0,2.3690092E1,1.9832745E-1,-3.0152252E0,-8.836212E0,-2.8043094E0,4.3571205E0,3.9791503E0,-2.1354969E0,1.1113834E1,-7.2357076E-1,2.7905956E-1,6.786497E0,5.5798645E0,1.86877E1,1.5464091E1,2.4303762E1,-1.0939453E0,1.096988E1,5.785218E0,1.2367048E1,-2.4930857E-1,2.1001003E0,1.4946783E1,2.3944304E1,-5.747925E-1,1.8047804E-1,6.277587E-1,2.4709644E1,-5.584683E-1,2.7880719E-2,-1.030574E0,-4.786152E-1,-9.854889E-2,-1.2792606E0,5.5022186E-1,-2.720157E-1,2.971625E-1,1.3050064E0,-3.1346834E-1,7.6351696E-1,1.1851549E0,1.6614616E-1,-2.385418E-1,3.8993663E-1,4.8244795E-1,1.1483244E0,7.1077996E-1,1.5110122E-1,2.0861602E0,5.819783E-1,1.8119927E-1,1.6160568E0,2.5341973E0,4.365309E-1,2.0331867E-1,-3.856429E-1,1.2619705E0,3.0102023E-1,9.7025317E-1,3.2033667E-1,1.536192E0,6.3604534E-1,-2.6355335E-1,3.8799077E-1,1.0849879E0,2.1781795E0,2.4713228E0,6.589676E-1,8.009899E-1,2.5686166E0],"categories":[],"categories_nodes":[],"categories_segments":[],"categories_sizes":[],"default_left":[0,0,0,0,0,0,0,0,0,0,0,0,0,0,0,0,0,0,0,0,0,0,0,0,0,0,0,0,0,0,0,0,0,0,0,0,0,0,0,0,0,0,0,0,0,0,0,0,0,0,0,0,0,0,0,0,0,0,0,0,0,0,0,0,0,0,0,0,0,0,0,0,0,0,0,0,0,0,0,0,0,0,0,0,0,0,0,0,0,0,0,0,0,0,0,0,0,0,0],"id":4,"left_children":[1,3,5,7,9,11,13,15,17,19,21,23,25,27,29,31,33,35,37,39,41,43,45,47,49,51,53,-1,-1,55,-1,57,59,61,63,65,67,69,-1,71,73,75,77,79,81,83,85,87,89,91,-1,93,95,-1,-1,-1,97,-1,-1,-1,-1,-1,-1,-1,-1,-1,-1,-1,-1,-1,-1,-1,-1,-1,-1,-1,-1,-1,-1,-1,-1,-1,-1,-1,-1,-1,-1,-1,-1,-1,-1,-1,-1,-1,-1,-1,-1,-1,-1],"loss_changes":[3.4806953E4,2.5799977E4,6.7507656E3,1.8160072E4,7.2596934E3,5.451412E3,4.883125E2,7.5316836E3,5.631997E3,5.143038E3,1.2269268E3,3.2852666E3,1.149833E3,7.534613E1,3.6860352E2,5.8564375E3,1.1299197E3,4.0834753E3,5.377715E2,3.9779016E3,9.974038E2,2.651211E2,3.0292264E2,2.0037695E3,1.3103523E3,5.023838E2,6.660279E1,0E0,0E0,3.774707E2,0E0,2.049815E3,3.6645156E3,5.869015E2,5.579464E2,1.4509058E3,3.255394E3,3.4988672E2,0E0,2.59449E3,1.2807886E3,5.1429443E1,5.779287E2,1.4186719E2,2.2058008E2,5.1034092E1,1.4540436E1,1.8399941E3,1.0535859E3,8.871639E2,0E0,6.597466E2,3.7314453E1,0E0,0E0,0E0,2.508711E2,0E0,0E0,0E0,0E0,0E0,0E0,0E0,0E0,0E0,0E0,0E0,0E0,0E0,0E0,0E0,0E0,0E0,0E0,0E0,0E0,0E0,0E0,0E0,0E0,0E0,0E0,0E0,0E0,0E0,0E0,0E0,0E0,0E0,0E0,0E0,0E0,0E0,0E0,0E0,0E0,0E0,0E0],"parents":[2147483647,0,0,1,1,2,2,3,3,4,4,5,5,6,6,7,7,8,8,9,9,10,10,11,11,12,12,13,13,14,14,15,15,16,16,17,17,18,18,19,19,20,20,21,21,22,22,23,23,24,24,25,25,26,26,29,29,31,31,32,32,33,33,34,34,35,35,36,36,37,37,39,39,40,40,41,41,42,42,43,43,44,44,45,45,46,46,47,47,48,48,49,49,51,51,52,52,56,56],"right_children":[2,4,6,8,10,12,14,16,18,20,22,24,26,28,30,32,34,36,38,40,42,44,46,48,50,52,54,-1,-1,56,-1,58,60,62,64,66,68,70,-1,72,74,76,78,80,82,84,86,88,90,92,-1,94,96,-1,-1,-1,98,-1,-1,-1,-1,-1,-1,-1,-1,-1,-1,-1,-1,-1,-1,-1,-1,-1,-1,-1,-1,-1,-1,-1,-1,-1,-1,-1,-1,-1,-1,-1,-1,-1,-1,-1,-1,-1,-1,-1,-1,-1,-1],"split_conditions":[1E0,2.5789478E0,2E0,1.1972173E1,5.632713E0,3.3795974E0,3.7199285E6,1E0,2.8258404E1,1E0,8.01E2,1.7441763E1,3E0,8.947756E-1,2.2168522E1,7.201429E0,1.2796493E1,7.9857264E0,2.6520283E0,1.2808581E1,3.098757E0,1.445624E1,3.959958E1,1E0,2.3349138E1,4.8395095E0,4.2145384E5,1.3463898E-1,1.2192957E0,9.5906824E-1,1.9832745E-1,5.2286724E1,1E0,2.058837E0,2.6856384E0,2E0,1E0,2.2891512E0,-7.2357076E-1,3.477679E0,2.2642563E1,2.3343988E7,1.5264422E1,3.1151817E1,2.3771386E0,1.3558408E0,1.0238107E5,1E0,2.9974117E0,5.751775E1,2.1001003E0,1.2299372E1,3.413764E0,-5.747925E-1,1.8047804E-1,6.277587E-1,1.6121117E1,-5.584683E-1,2.7880719E-2,-1.030574E0,-4.786152E-1,-9.854889E-2,-1.2792606E0,5.5022186E-1,-2.720157E-1,2.971625E-1,1.3050064E0,-3.1346834E-1,7.6351696E-1,1.1851549E0,1.6614616E-1,-2.385418E-1,3.8993663E-1,4.8244795E-1,1.1483244E0,7.1077996E-1,1.5110122E-1,2.0861602E0,5.819783E-1,1.8119927E-1,1.6160568E0,2.5341973E0,4.365309E-1,2.0331867E-1,-3.856429E-1,1.2619705E0,3.0102023E-1,9.7025317E-1,3.2033667E-1,1.536192E0,6.3604534E-1,-2.6355335E-1,3.8799077E-1,1.0849879E0,2.1781795E0,2.4713228E0,6.589676E-1,8.009899E-1,2.5686166E0],"split_indices":[16,7,16,12,7,7,8,18,12,18,14,2,21,4,2,2,13,2,6,12,12,12,23,19,12,7,1,0,0,12,0,17,19,6,4,20,18,7,0,7,12,11,2,17,6,4,1,21,5,17,0,12,5,0,0,0,23,0,0,0,0,0,0,0,0,0,0,0,0,0,0,0,0,0,0,0,0,0,0,0,0,0,0,0,0,0,0,0,0,0,0,0,0,0,0,0,0,0,0],"split_type":[0,0,0,0,0,0,0,0,0,0,0,0,0,0,0,0,0,0,0,0,0,0,0,0,0,0,0,0,0,0,0,0,0,0,0,0,0,0,0,0,0,0,0,0,0,0,0,0,0,0,0,0,0,0,0,0,0,0,0,0,0,0,0,0,0,0,0,0,0,0,0,0,0,0,0,0,0,0,0,0,0,0,0,0,0,0,0,0,0,0,0,0,0,0,0,0,0,0,0],"sum_hessian":[2.412E3,1.99E3,4.22E2,1.507E3,4.83E2,3.85E2,3.7E1,9.62E2,5.45E2,4.44E2,3.9E1,3.37E2,4.8E1,7E0,3E1,8.64E2,9.8E1,4.92E2,5.3E1,4.11E2,3.3E1,3.2E1,7E0,2.47E2,9E1,4.5E1,3E0,1E0,6E0,2.9E1,1E0,2.41E2,6.23E2,3.2E1,6.6E1,1.62E2,3.3E2,5.2E1,1E0,2.67E2,1.44E2,9E0,2.4E1,1.7E1,1.5E1,4E0,3E0,1.84E2,6.3E1,8.8E1,2E0,3.1E1,1.4E1,1E0,2E0,2E0,2.7E1,1.35E2,1.06E2,4.56E2,1.67E2,2.8E1,4E0,5.7E1,9E0,1.47E2,1.5E1,3E2,3E1,4.8E1,4E0,1.54E2,1.13E2,1.03E2,4.1E1,6E0,3E0,2E1,4E0,1E0,1.6E1,1.4E1,1E0,2E0,2E0,2E0,1E0,7.2E1,1.12E2,4.1E1,2.2E1,5.6E1,3.2E1,2.1E1,1E1,1.3E1,1E0,2E0,2.5E1],"tree_param":{"num_deleted":"0","num_feature":"24","num_nodes":"99","size_leaf_vector":"1"}},{"base_weights":[1.10847756E-1,-2.748688E0,4.57366E0,-5.3575535E0,1.5498898E0,2.7197654E0,1.1484355E1,-6.7658753E0,1.2737675E0,-1.5763497E-1,9.684261E0,7.3866224E-1,8.967143E0,1.5912277E1,7.2440405E0,-4.771058E0,-1.0553799E1,3.949201E0,-2.2989337E0,-4.166019E0,2.247939E0,7.435074E0,2.148415E1,-8.0614996E-1,7.9047837E0,7.263233E0,1.5581028E1,1.32399845E1,2.2700459E1,5.7933135E0,1.695349E1,-6.201641E0,1.980889E0,-1.1415059E1,-6.78521E-1,1.2299479E0,8.22052E0,-5.068296E0,1.5624926E0,-5.7310545E-1,-7.2891684E0,5.0985086E-1,8.502481E0,5.0794377E0,1.3359365E1,1.1226494E0,2.549033E0,1.5494603E0,-4.1828227E0,1.1676284E1,5.636318E0,5.681044E0,1.5003391E1,1.7707863E1,8.280472E0,6.592691E0,1.603294E1,1.2400709E0,2.4562271E1,2.0221176E0,9.208116E0,1.9216665E1,3.0040208E-1,-3.930306E-1,-8.5896045E-1,4.3583012E-1,-5.8117265E-1,-1.015603E0,-1.8744593E0,-1.0753101E0,2.157669E-1,-3.6487147E-2,6.2683004E-1,1.1024357E0,4.026702E-1,-8.4250396E-1,-2.3395598E-1,6.4773583E-1,-1.2188083E-1,1.6757773E-1,-6.4148384E-1,1.7046468E-1,-8.6426306E-1,-5.3272057E-2,1.137923E0,6.2833E-1,1.413772E0,6.604976E-1,-2.4552767E-1,1.4463544E0,-5.4662794E-1,-4.4630993E-2,4.925289E-1,-1.669415E-1,-7.9475754E-1,1.3413565E0,6.350567E-1,9.56281E-1,3.25841E-1,8.142893E-1,1.9731244E-1,2.0657003E0,1.0885524E0,1.1672266E0,2.057161E0,1.2189716E0,3.6426887E-1,4.8504525E-1,1.1894661E0,2.15126E0,1.2821555E0,2.51324E0,6.579834E-1,1.41063435E-2,5.7748216E-1,1.0495727E0,1.4580981E-1,5.7064974E-1,1.9997033E0],"categories":[],"categories_nodes":[],"categories_segments":[],"categories_sizes":[],"default_left":[0,0,0,0,0,0,0,0,0,0,0,0,0,0,0,0,0,0,0,0,0,0,0,0,0,0,0,0,0,0,0,0,0,0,0,0,0,0,0,0,0,0,0,0,0,0,0,0,0,0,0,0,0,0,0,0,0,0,0,0,0,0,0,0,0,0,0,0,0,0,0,0,0,0,0,0,0,0,0,0,0,0,0,0,0,0,0,0,0,0,0,0,0,0,0,0,0,0,0,0,0,0,0,0,0,0,0,0,0,0,0,0,0,0,0,0,0,0,0],"id":5,"left_children":[1,3,5,7,9,11,13,15,17,19,21,23,25,27,29,31,33,35,37,39,41,43,45,47,49,51,53,55,57,59,61,63,65,67,69,71,73,75,77,79,81,83,85,87,89,-1,-1,91,93,95,97,99,101,103,105,107,109,-1,111,113,115,117,-1,-1,-1,-1,-1,-1,-1,-1,-1,-1,-1,-1,-1,-1,-1,-1,-1,-1,-1,-1,-1,-1,-1,-1,-1,-1,-1,-1,-1,-1,-1,-1,-1,-1,-1,-1,-1,-1,-1,-1,-1,-1,-1,-1,-1,-1,-1,-1,-1,-1,-1,-1,-1,-1,-1,-1,-1],"loss_changes":[3.0946617E4,1.6583203E4,1.2101441E4,8.600531E3,7.765836E3,9.251148E3,3.6398867E3,5.6848125E3,1.55756E3,4.473826E3,2.4146592E3,6.30538E3,1.915335E3,1.4590273E3,1.3667026E3,4.8322354E3,2.2121055E3,1.0700652E3,7.564773E2,1.9483127E3,3.1482393E3,1.0904463E3,3.3024365E2,3.7369656E3,7.982959E2,1.6904922E3,4.123457E2,1.2310225E3,1.9399219E2,1.1661462E3,3.526836E2,2.200874E3,1.65564E3,2.024377E3,6.5181696E2,4.6833228E2,3.7892432E2,3.5583545E2,4.1798627E2,1.0880145E3,1.1468022E3,2.5897815E3,6.9902246E2,7.173812E2,5.571592E2,0E0,0E0,1.8684517E3,1.8129675E3,2.571499E2,5.757346E2,1.0975906E3,3.3387744E2,2.2656152E2,1.3689899E2,1.5476337E2,6.0404004E2,0E0,4.993164E1,3.1684213E2,4.6368823E2,1.8586426E0,0E0,0E0,0E0,0E0,0E0,0E0,0E0,0E0,0E0,0E0,0E0,0E0,0E0,0E0,0E0,0E0,0E0,0E0,0E0,0E0,0E0,0E0,0E0,0E0,0E0,0E0,0E0,0E0,0E0,0E0,0E0,0E0,0E0,0E0,0E0,0E0,0E0,0E0,0E0,0E0,0E0,0E0,0E0,0E0,0E0,0E0,0E0,0E0,0E0,0E0,0E0,0E0,0E0,0E0,0E0,0E0,0E0],"parents":[2147483647,0,0,1,1,2,2,3,3,4,4,5,5,6,6,7,7,8,8,9,9,10,10,11,11,12,12,13,13,14,14,15,15,16,16,17,17,18,18,19,19,20,20,21,21,22,22,23,23,24,24,25,25,26,26,27,27,28,28,29,29,30,30,31,31,32,32,33,33,34,34,35,35,36,36,37,37,38,38,39,39,40,40,41,41,42,42,43,43,44,44,47,47,48,48,49,49,50,50,51,51,52,52,53,53,54,54,55,55,56,56,58,58,59,59,60,60,61,61],"right_children":[2,4,6,8,10,12,14,16,18,20,22,24,26,28,30,32,34,36,38,40,42,44,46,48,50,52,54,56,58,60,62,64,66,68,70,72,74,76,78,80,82,84,86,88,90,-1,-1,92,94,96,98,100,102,104,106,108,110,-1,112,114,116,118,-1,-1,-1,-1,-1,-1,-1,-1,-1,-1,-1,-1,-1,-1,-1,-1,-1,-1,-1,-1,-1,-1,-1,-1,-1,-1,-1,-1,-1,-1,-1,-1,-1,-1,-1,-1,-1,-1,-1,-1,-1,-1,-1,-1,-1,-1,-1,-1,-1,-1,-1,-1,-1,-1,-1,-1,-1],"split_conditions":[1E0,1.9696985E0,2.6691763E0,1E0,1E0,2E0,5.427566E0,1.4431418E1,8.91178E0,6.8711486E0,2E0,1.817233E1,1E0,1E0,5.9106207E0,1.6513083E1,1E0,1.0627194E1,6.0449776E1,1.1265242E1,3.7488036E0,1.5859042E1,3.7199285E6,1.0880064E1,2.1818633E0,3E0,2.153137E1,5.492411E0,3.0897202E0,7.8989596E0,1.7334538E0,1.2259256E1,1.7441763E1,2.0297272E1,6.558155E-1,1E0,8.372687E0,8.1701765E0,1.1476374E0,1.8687227E1,-5.031513E0,1E0,5.016825E0,2.153137E1,1.895018E1,1.1226494E0,2.549033E0,1.6159372E0,1.477368E1,1.5059427E0,7.764264E0,1.2912812E1,1.2061279E0,3.0236036E1,4.5414043E1,1E0,1.1032748E0,1.2400709E0,1.2096478E0,3.8888118E0,1.92204E8,7.527222E0,3.0040208E-1,-3.930306E-1,-8.5896045E-1,4.3583012E-1,-5.8117265E-1,-1.015603E0,-1.8744593E0,-1.0753101E0,2.157669E-1,-3.6487147E-2,6.2683004E-1,1.1024357E0,4.026702E-1,-8.4250396E-1,-2.3395598E-1,6.4773583E-1,-1.2188083E-1,1.6757773E-1,-6.4148384E-1,1.7046468E-1,-8.6426306E-1,-5.3272057E-2,1.137923E0,6.2833E-1,1.413772E0,6.604976E-1,-2.4552767E-1,1.4463544E0,-5.4662794E-1,-4.4630993E-2,4.925289E-1,-1.669415E-1,-7.9475754E-1,1.3413565E0,6.350567E-1,9.56281E-1,3.25841E-1,8.142893E-1,1.9731244E-1,2.0657003E0,1.0885524E0,1.1672266E0,2.057161E0,1.2189716E0,3.6426887E-1,4.8504525E-1,1.1894661E0,2.15126E0,1.2821555E0,2.51324E0,6.579834E-1,1.41063435E-2,5.7748216E-1,1.0495727E0,1.4580981E-1,5.7064974E-1,1.9997033E0],"split_indices":[15,7,7,16,16,15,3,3,3,12,16,12,16,16,7,12,18,12,17,2,7,12,8,3,3,15,3,12,7,12,6,2,2,2,7,19,2,12,6,3,3,18,7,3,2,0,0,7,2,10,2,2,10,22,17,18,4,0,3,7,9,3,0,0,0,0,0,0,0,0,0,0,0,0,0,0,0,0,0,0,0,0,0,0,0,0,0,0,0,0,0,0,0,0,0,0,0,0,0,0,0,0,0,0,0,0,0,0,0,0,0,0,0,0,0,0,0,0,0],"split_type":[0,0,0,0,0,0,0,0,0,0,0,0,0,0,0,0,0,0,0,0,0,0,0,0,0,0,0,0,0,0,0,0,0,0,0,0,0,0,0,0,0,0,0,0,0,0,0,0,0,0,0,0,0,0,0,0,0,0,0,0,0,0,0,0,0,0,0,0,0,0,0,0,0,0,0,0,0,0,0,0,0,0,0,0,0,0,0,0,0,0,0,0,0,0,0,0,0,0,0,0,0,0,0,0,0,0,0,0,0,0,0,0,0,0,0,0,0,0,0],"sum_hessian":[2.423E3,1.477E3,9.46E2,9.19E2,5.58E2,7.47E2,1.99E2,7.58E2,1.61E2,4.62E2,9.6E1,5.68E2,1.79E2,9.6E1,1.03E2,4.98E2,2.6E2,9.2E1,6.9E1,1.73E2,2.89E2,8.2E1,1.4E1,4.68E2,1E2,1.44E2,3.5E1,7.1E1,2.5E1,9.1E1,1.2E1,4.11E2,8.7E1,2.39E2,2.1E1,5.7E1,3.5E1,4E1,2.9E1,8.1E1,9.2E1,2.27E2,6.2E1,6E1,2.2E1,5E0,9E0,2.76E2,1.92E2,3.6E1,6.4E1,1.21E2,2.3E1,2.6E1,9E0,2.2E1,4.9E1,5E0,2E1,4.4E1,4.7E1,1E1,2E0,2.12E2,1.99E2,6.7E1,2E1,2.06E2,3.3E1,4E0,1.7E1,4.4E1,1.3E1,2E1,1.5E1,1.7E1,2.3E1,1E1,1.9E1,5.9E1,2.2E1,1.2E1,8E1,2.08E2,1.9E1,4.6E1,1.6E1,5E1,1E1,2.1E1,1E0,1.74E2,1.02E2,1.16E2,7.6E1,2.6E1,1E1,2.3E1,4.1E1,7.2E1,4.9E1,8E0,1.5E1,1E1,1.6E1,4E0,5E0,1.8E1,4E0,1.6E1,3.3E1,1.9E1,1E0,3E1,1.4E1,4E1,7E0,1E0,9E0],"tree_param":{"num_deleted":"0","num_feature":"24","num_nodes":"119","size_leaf_vector":"1"}},{"base_weights":[1.0842511E-1,-1.0646781E0,7.8817472E0,-2.9719958E0,3.402638E0,5.8246574E0,1.5298417E1,-3.8332696E0,4.565294E0,2.3439524E0,1.0716762E1,2.5653937E0,8.385475E0,1.3169124E1,2.4137697E0,-9.615801E-1,-5.450222E0,1.9508708E0,8.723749E0,8.615877E-1,6.668421E0,2.7882187E0,1.2381553E1,1.5652151E0,1.0686433E1,1.540569E1,7.14556E0,3.991702E0,1.5036837E1,-2.0232606E0,4.08979E0,-6.5495114E0,-1.812199E0,1.3280006E1,7.4257904E-1,4.181631E0,1.1806962E1,-1.0510101E0,3.8261087E0,3.1934793E0,9.160125E0,4.569766E0,-5.8612245E-1,1.0022666E1,1.6253317E1,9.954196E0,5.22504E-1,1.6389784E0,1.2332026E1,1.631738E1,-9.5821954E-2,7.8195076E0,-1.0498188E0,-1.956955E0,9.275075E-1,1.702029E1,7.833405E0,-3.496795E-1,1.5382855E-1,2.207561E-1,8.3682585E-1,-3.2761556E-1,-8.2399714E-1,-1.4509204E-2,-5.3558064E-1,1.8046494E0,5.857519E-1,3.1277096E-1,-2.8222603E-1,5.5303615E-1,-7.55251E-1,5.6721807E-1,1.694498E0,-2.9219463E-2,-9.762778E-1,-1.9441E-1,5.108534E-1,-2.0575967E-1,6.287724E-1,1.039073E0,-6.1624434E-2,6.532356E-1,1.2315064E-2,5.5546697E-2,1.0470933E0,1.781721E0,4.3705234E-1,3.6185533E-1,1.1877743E0,1.5957777E-1,-4.1801292E-1,4.3014716E-2,2.0283203E-1,1.3414396E0,5.33503E-1,9.598606E-1,1.9436783E0,1.061003E0,5.442966E-1,-4.5947528E-1,3.4140655E-1,1.4055748E-1,-2.910576E-1,1.3214984E0,2.205613E0,1.0795538E0,3.072016E-1],"categories":[],"categories_nodes":[],"categories_segments":[],"categories_sizes":[],"default_left":[0,0,0,0,0,0,0,0,0,0,0,0,0,0,0,0,0,0,0,0,0,0,0,0,0,0,0,0,0,0,0,0,0,0,0,0,0,0,0,0,0,0,0,0,0,0,0,0,0,0,0,0,0,0,0,0,0,0,0,0,0,0,0,0,0,0,0,0,0,0,0,0,0,0,0,0,0,0,0,0,0,0,0,0,0,0,0,0,0,0,0,0,0,0,0,0,0,0,0,0,0,0,0,0,0,0,0],"id":6,"left_children":[1,3,5,7,9,11,13,15,17,19,21,23,25,27,-1,29,31,33,35,37,39,41,43,45,47,49,51,53,55,57,59,61,63,65,67,69,71,73,75,77,79,81,-1,83,85,87,89,91,93,95,-1,97,99,101,-1,103,105,-1,-1,-1,-1,-1,-1,-1,-1,-1,-1,-1,-1,-1,-1,-1,-1,-1,-1,-1,-1,-1,-1,-1,-1,-1,-1,-1,-1,-1,-1,-1,-1,-1,-1,-1,-1,-1,-1,-1,-1,-1,-1,-1,-1,-1,-1,-1,-1,-1,-1],"loss_changes":[2.1975844E4,1.785223E4,4.7320273E3,9.54727E3,4.8299663E3,2.0567363E3,9.6198535E2,6.11474E3,1.6246472E3,3.5135857E3,1.00822656E3,8.848697E2,1.0998398E3,9.170029E2,0E0,2.5610347E3,3.3594902E3,1.2768953E3,7.628779E2,2.328695E3,1.1829409E3,2.5792526E2,4.3074707E2,8.695272E2,1.5844934E2,3.1401172E2,6.71E2,3.6386963E2,5.3819336E2,2.073115E3,6.499304E2,3.553164E3,1.1630146E3,2.1270508E2,7.4005145E2,4.374228E2,9.7558594E2,1.6498037E3,1.2013091E3,9.878244E2,9.8090186E2,1.1264502E2,0E0,1.7666846E2,3.4954785E2,9.1075806E1,4.6091968E2,5.394707E-1,4.1671143E0,2.1164697E2,0E0,6.783784E2,1.7392853E2,2.333051E1,0E0,3.9839355E2,1.360824E2,0E0,0E0,0E0,0E0,0E0,0E0,0E0,0E0,0E0,0E0,0E0,0E0,0E0,0E0,0E0,0E0,0E0,0E0,0E0,0E0,0E0,0E0,0E0,0E0,0E0,0E0,0E0,0E0,0E0,0E0,0E0,0E0,0E0,0E0,0E0,0E0,0E0,0E0,0E0,0E0,0E0,0E0,0E0,0E0,0E0,0E0,0E0,0E0,0E0,0E0],"parents":[2147483647,0,0,1,1,2,2,3,3,4,4,5,5,6,6,7,7,8,8,9,9,10,10,11,11,12,12,13,13,15,15,16,16,17,17,18,18,19,19,20,20,21,21,22,22,23,23,24,24,25,25,26,26,27,27,28,28,29,29,30,30,31,31,32,32,33,33,34,34,35,35,36,36,37,37,38,38,39,39,40,40,41,41,43,43,44,44,45,45,46,46,47,47,48,48,49,49,51,51,52,52,53,53,55,55,56,56],"right_children":[2,4,6,8,10,12,14,16,18,20,22,24,26,28,-1,30,32,34,36,38,40,42,44,46,48,50,52,54,56,58,60,62,64,66,68,70,72,74,76,78,80,82,-1,84,86,88,90,92,94,96,-1,98,100,102,-1,104,106,-1,-1,-1,-1,-1,-1,-1,-1,-1,-1,-1,-1,-1,-1,-1,-1,-1,-1,-1,-1,-1,-1,-1,-1,-1,-1,-1,-1,-1,-1,-1,-1,-1,-1,-1,-1,-1,-1,-1,-1,-1,-1,-1,-1,-1,-1,-1,-1,-1,-1],"split_conditions":[3.2079206E0,1.3916773E1,5.2721095E0,1E0,2.8258404E1,7.7632127E0,7.665875E0,1E0,1E0,1E0,1.1380595E1,1E0,8.836128E-1,3.6206973E0,2.4137697E0,6.979134E1,1E0,2.8210514E1,1.3748502E1,3.233041E1,2.3847584E1,2.1361566E0,1E0,7.541142E-1,6.971465E0,3E0,3E0,2.051569E1,2E0,1.8074479E0,1E0,1.0530126E0,2.2588325E6,2.5803846E7,1.3462504E0,4.9904447E0,2.594676E1,3E0,8.8152695E-1,1.3159637E0,3E0,2.5711377E0,-5.8612245E-1,1.9588842E1,2.6095634E7,1.9657383E1,4.9548225E0,5.588304E6,2.1632462E1,3.6088433E0,-9.5821954E-2,1.2159584E0,1E0,1.7048088E5,9.275075E-1,4.702691E6,7.58E2,-3.496795E-1,1.5382855E-1,2.207561E-1,8.3682585E-1,-3.2761556E-1,-8.2399714E-1,-1.4509204E-2,-5.3558064E-1,1.8046494E0,5.857519E-1,3.1277096E-1,-2.8222603E-1,5.5303615E-1,-7.55251E-1,5.6721807E-1,1.694498E0,-2.9219463E-2,-9.762778E-1,-1.9441E-1,5.108534E-1,-2.0575967E-1,6.287724E-1,1.039073E0,-6.1624434E-2,6.532356E-1,1.2315064E-2,5.5546697E-2,1.0470933E0,1.781721E0,4.3705234E-1,3.6185533E-1,1.1877743E0,1.5957777E-1,-4.1801292E-1,4.3014716E-2,2.0283203E-1,1.3414396E0,5.33503E-1,9.598606E-1,1.9436783E0,1.061003E0,5.442966E-1,-4.5947528E-1,3.4140655E-1,1.4055748E-1,-2.910576E-1,1.3214984E0,2.205613E0,1.0795538E0,3.072016E-1],"split_indices":[7,12,7,18,12,12,7,21,20,19,22,18,6,12,0,17,19,23,13,22,22,6,19,10,22,21,21,13,21,7,19,10,1,11,10,5,22,21,7,7,21,5,0,17,0,13,5,0,13,7,0,10,19,0,0,0,14,0,0,0,0,0,0,0,0,0,0,0,0,0,0,0,0,0,0,0,0,0,0,0,0,0,0,0,0,0,0,0,0,0,0,0,0,0,0,0,0,0,0,0,0,0,0,0,0,0,0],"split_type":[0,0,0,0,0,0,0,0,0,0,0,0,0,0,0,0,0,0,0,0,0,0,0,0,0,0,0,0,0,0,0,0,0,0,0,0,0,0,0,0,0,0,0,0,0,0,0,0,0,0,0,0,0,0,0,0,0,0,0,0,0,0,0,0,0,0,0,0,0,0,0,0,0,0,0,0,0,0,0,0,0,0,0,0,0,0,0,0,0,0,0,0,0,0,0,0,0,0,0,0,0,0,0,0,0,0,0],"sum_hessian":[2.408E3,2.093E3,3.15E2,1.467E3,6.26E2,2.48E2,6.7E1,1.317E3,1.5E2,5.48E2,7.8E1,1.1E2,1.38E2,5.6E1,1.1E1,4.75E2,8.42E2,9.3E1,5.7E1,4.09E2,1.39E2,1.4E1,6.4E1,9.9E1,1.1E1,1.9E1,1.19E2,1E1,4.6E1,3.93E2,8.2E1,6.46E2,1.96E2,8E0,8.5E1,2.4E1,3.3E1,2.49E2,1.6E2,5.9E1,8E1,1.2E1,2E0,4.2E1,2.2E1,1E1,8.9E1,2E0,9E0,1.8E1,1E0,1.1E2,9E0,5E0,5E0,3.5E1,1.1E1,2.78E2,1.15E2,5.8E1,2.4E1,2.21E2,4.25E2,1.34E2,6.2E1,4E0,4E0,5.1E1,3.4E1,2.2E1,2E0,1.6E1,1.7E1,2.3E2,1.9E1,2.9E1,1.31E2,2.2E1,3.7E1,7.1E1,9E0,8E0,4E0,2E0,4E1,1.9E1,3E0,3E0,7E0,7.3E1,1.6E1,1E0,1E0,7E0,2E0,7E0,1.1E1,4.9E1,6.1E1,5E0,4E0,1E0,4E0,2.2E1,1.3E1,6E0,5E0],"tree_param":{"num_deleted":"0","num_feature":"24","num_nodes":"107","size_leaf_vector":"1"}},{"base_weights":[-3.879757E-2,-2.5428715E0,3.9840055E0,-3.9161956E0,3.9178114E0,2.4530675E0,1.1632707E1,-7.9206796E0,-1.7274579E0,1.4732302E0,8.625617E0,3.5325065E-1,6.9683747E0,1.0038743E1,1.8758432E1,-1.220348E1,-5.6075225E0,-2.6194444E0,5.551322E0,-1.2702097E0,4.328441E0,7.1131597E0,1.8703665E1,-4.5867804E-1,7.6386247E0,4.845445E0,1.2536076E1,6.559291E0,1.3524539E1,1.958288E1,5.6352276E-1,-1.0245671E1,-1.8172989E1,-4.21458E0,-9.346004E0,-3.5522368E0,3.7441287E0,7.702923E0,1.6125422E0,1.2009163E0,-5.932346E0,-7.8517044E-1,6.8541656E0,-3.4850528E0,8.191945E0,7.9803956E-1,2.172734E0,-1.6644094E0,4.3944592E0,9.865105E0,1.8733208E0,3.5533624E0,1.3042091E1,1.4478739E1,8.693253E0,1.0396549E1,3.9659247E0,1.1115888E1,1.938819E1,2.1096962E1,1.1272132E0,-1.2177397E0,-4.3021446E-1,-1.8659457E0,-5.7328608E-2,-5.355389E-1,1.5923986E-2,-1.0579245E0,-1.8871115E-1,-4.7649655E-1,3.9056377E-3,2.692977E-1,1.302207E0,5.574519E-1,1.3148926E0,-3.3934042E-1,4.78578E-1,7.1361285E-1,-4.6628956E-2,-1.7307533E-1,-9.7631663E-1,-4.2361304E-1,3.214867E-1,1.0660101E0,3.54765E-1,3.303107E-1,-6.298291E-1,6.297058E-1,1.2212278E0,-2.5366237E-2,-7.072038E-1,2.852025E-1,1.1831977E0,5.1422024E-1,1.1847128E0,-1.1174997E-1,8.676626E-1,6.020993E-2,6.2785804E-1,1.5011126E0,4.633133E-1,1.1064994E0,1.9048878E0,5.448027E-1,1.2328265E0,1.5314865E-1,1.1486276E0,-4.9578586E-1,5.3430575E-1,1.2466E0,4.87387E-1,5.238206E-1,2.2046173E0,8.0056614E-1,2.210679E0],"categories":[],"categories_nodes":[],"categories_segments":[],"categories_sizes":[],"default_left":[0,0,0,0,0,0,0,0,0,0,0,0,0,0,0,0,0,0,0,0,0,0,0,0,0,0,0,0,0,0,0,0,0,0,0,0,0,0,0,0,0,0,0,0,0,0,0,0,0,0,0,0,0,0,0,0,0,0,0,0,0,0,0,0,0,0,0,0,0,0,0,0,0,0,0,0,0,0,0,0,0,0,0,0,0,0,0,0,0,0,0,0,0,0,0,0,0,0,0,0,0,0,0,0,0,0,0,0,0,0,0,0,0,0,0],"id":7,"left_children":[1,3,5,7,9,11,13,15,17,19,21,23,25,27,29,31,33,35,37,39,41,43,45,47,49,51,53,55,57,59,-1,61,63,65,67,69,71,73,75,77,79,81,83,85,87,-1,-1,89,91,93,95,97,99,101,103,105,107,109,111,113,-1,-1,-1,-1,-1,-1,-1,-1,-1,-1,-1,-1,-1,-1,-1,-1,-1,-1,-1,-1,-1,-1,-1,-1,-1,-1,-1,-1,-1,-1,-1,-1,-1,-1,-1,-1,-1,-1,-1,-1,-1,-1,-1,-1,-1,-1,-1,-1,-1,-1,-1,-1,-1,-1,-1],"loss_changes":[2.4287018E4,1.3200043E4,1.0802924E4,1.073192E4,2.9910403E3,7.317116E3,1.5608418E3,4.221209E3,5.1696445E3,1.3606241E3,1.2235508E3,3.1267314E3,2.8351162E3,1.4637568E3,1.8177051E2,1.5785664E3,1.4343301E3,4.2159116E3,7.24876E2,1.0324689E3,1.1032054E3,9.317717E2,1.8326807E2,2.792666E3,6.618452E2,1.8494004E3,3.743086E2,6.155615E2,6.742627E2,7.677051E1,0E0,1.2794375E3,2.975244E2,1.038709E3,6.791304E2,2.6917388E3,8.5241174E2,5.758137E2,5.24562E2,5.871455E2,4.8206445E2,4.139337E2,6.794917E2,1.7357759E2,4.715996E2,0E0,0E0,2.9124062E3,1.0560834E3,2.9479443E2,3.3525555E2,1.2509017E3,3.2783228E2,4.600791E2,2.277461E2,2.3358154E2,5.303487E2,3.3533154E2,5.23895E2,8.74209E1,0E0,0E0,0E0,0E0,0E0,0E0,0E0,0E0,0E0,0E0,0E0,0E0,0E0,0E0,0E0,0E0,0E0,0E0,0E0,0E0,0E0,0E0,0E0,0E0,0E0,0E0,0E0,0E0,0E0,0E0,0E0,0E0,0E0,0E0,0E0,0E0,0E0,0E0,0E0,0E0,0E0,0E0,0E0,0E0,0E0,0E0,0E0,0E0,0E0,0E0,0E0,0E0,0E0,0E0,0E0],"parents":[2147483647,0,0,1,1,2,2,3,3,4,4,5,5,6,6,7,7,8,8,9,9,10,10,11,11,12,12,13,13,14,14,15,15,16,16,17,17,18,18,19,19,20,20,21,21,22,22,23,23,24,24,25,25,26,26,27,27,28,28,29,29,31,31,32,32,33,33,34,34,35,35,36,36,37,37,38,38,39,39,40,40,41,41,42,42,43,43,44,44,47,47,48,48,49,49,50,50,51,51,52,52,53,53,54,54,55,55,56,56,57,57,58,58,59,59],"right_children":[2,4,6,8,10,12,14,16,18,20,22,24,26,28,30,32,34,36,38,40,42,44,46,48,50,52,54,56,58,60,-1,62,64,66,68,70,72,74,76,78,80,82,84,86,88,-1,-1,90,92,94,96,98,100,102,104,106,108,110,112,114,-1,-1,-1,-1,-1,-1,-1,-1,-1,-1,-1,-1,-1,-1,-1,-1,-1,-1,-1,-1,-1,-1,-1,-1,-1,-1,-1,-1,-1,-1,-1,-1,-1,-1,-1,-1,-1,-1,-1,-1,-1,-1,-1,-1,-1,-1,-1,-1,-1,-1,-1,-1,-1,-1,-1],"split_conditions":[1E0,1E0,1E0,1.3484789E0,2.1274872E0,1.3625015E1,3.0897202E0,5.819095E0,2.0642763E1,8.914721E0,2E0,3.5654569E0,2E0,3.0236036E1,6.979134E1,1.8008795E1,1.5974989E1,3.7488036E0,1.4530867E1,7.37E2,1.8558462E1,1.9588842E1,3.0293738E6,2E0,1.7513315E1,2E0,1.2363932E1,1.1351632E1,1E0,1.6080996E1,5.6352276E-1,1E0,2E0,1.865357E1,2.4251337E1,1E0,1.5781645E1,5.6873348E7,2.4251337E1,9.625243E-1,1.227405E0,1.1107846E0,8.372687E0,2.8898438E5,1.5859042E1,7.9803956E-1,2.172734E0,1.8319357E1,3E0,3.8551357E1,1E0,1.6650656E0,7.787327E7,2.0339613E0,1.2745461E0,6.807026E-1,1.0316768E0,3.6002205E6,2.9125881E0,1.42365E6,1.1272132E0,-1.2177397E0,-4.3021446E-1,-1.8659457E0,-5.7328608E-2,-5.355389E-1,1.5923986E-2,-1.0579245E0,-1.8871115E-1,-4.7649655E-1,3.9056377E-3,2.692977E-1,1.302207E0,5.574519E-1,1.3148926E0,-3.3934042E-1,4.78578E-1,7.1361285E-1,-4.6628956E-2,-1.7307533E-1,-9.7631663E-1,-4.2361304E-1,3.214867E-1,1.0660101E0,3.54765E-1,3.303107E-1,-6.298291E-1,6.297058E-1,1.2212278E0,-2.5366237E-2,-7.072038E-1,2.852025E-1,1.1831977E0,5.1422024E-1,1.1847128E0,-1.1174997E-1,8.676626E-1,6.020993E-2,6.2785804E-1,1.5011126E0,4.633133E-1,1.1064994E0,1.9048878E0,5.448027E-1,1.2328265E0,1.5314865E-1,1.1486276E0,-4.9578586E-1,5.3430575E-1,1.2466E0,4.87387E-1,5.238206E-1,2.2046173E0,8.0056614E-1,2.210679E0],"split_indices":[15,16,16,7,7,12,7,12,12,12,16,7,15,22,17,2,2,7,2,14,22,17,8,15,2,20,2,2,19,2,0,19,20,12,12,19,12,8,12,10,10,7,2,1,12,0,0,2,15,17,19,7,8,7,6,7,7,1,12,0,0,0,0,0,0,0,0,0,0,0,0,0,0,0,0,0,0,0,0,0,0,0,0,0,0,0,0,0,0,0,0,0,0,0,0,0,0,0,0,0,0,0,0,0,0,0,0,0,0,0,0,0,0,0,0],"split_type":[0,0,0,0,0,0,0,0,0,0,0,0,0,0,0,0,0,0,0,0,0,0,0,0,0,0,0,0,0,0,0,0,0,0,0,0,0,0,0,0,0,0,0,0,0,0,0,0,0,0,0,0,0,0,0,0,0,0,0,0,0,0,0,0,0,0,0,0,0,0,0,0,0,0,0,0,0,0,0,0,0,0,0,0,0,0,0,0,0,0,0,0,0,0,0,0,0,0,0,0,0,0,0,0,0,0,0,0,0,0,0,0,0,0,0],"sum_hessian":[2.409E3,1.485E3,9.24E2,1.225E3,2.6E2,7.71E2,1.53E2,4.32E2,7.93E2,1.72E2,8.8E1,5.27E2,2.44E2,1.27E2,2.6E1,1.5E2,2.82E2,7.07E2,8.6E1,8.8E1,8.4E1,7.8E1,1E1,4.75E2,5.2E1,1.78E2,6.6E1,6.5E1,6.2E1,2.4E1,2E0,1.15E2,3.5E1,2.07E2,7.5E1,6.17E2,9E1,5.5E1,3.1E1,5.8E1,3E1,2.8E1,5.6E1,7E0,7.1E1,3E0,7E0,3.81E2,9.4E1,3.7E1,1.5E1,1.55E2,2.3E1,4.2E1,2.4E1,2.5E1,4E1,4.6E1,1.6E1,1.9E1,5E0,8.6E1,2.9E1,3.4E1,1E0,1.64E2,4.3E1,6.4E1,1.1E1,4.61E2,1.56E2,8.2E1,8E0,4.1E1,1.4E1,1.2E1,1.9E1,1.2E1,4.6E1,1.5E1,1.5E1,1.5E1,1.3E1,2.5E1,3.1E1,2E0,5E0,5E1,2.1E1,3.03E2,7.8E1,7.9E1,1.5E1,1.2E1,2.5E1,1.1E1,4E0,7.5E1,8E1,1.8E1,5E0,2.6E1,1.6E1,1.4E1,1E1,3E0,2.2E1,5E0,3.5E1,3.7E1,9E0,3E0,1.3E1,2E0,1.7E1],"tree_param":{"num_deleted":"0","num_feature":"24","num_nodes":"115","size_leaf_vector":"1"}},{"base_weights":[8.486814E-2,-8.123431E-1,9.164585E0,-4.3676376E0,1.1163126E0,5.7042537E0,1.3048089E1,-2.7732894E0,-8.859262E0,3.7986572E0,-1.0514871E0,1.1653637E1,4.492595E0,1.6195234E1,8.771747E0,-3.6910355E0,4.9300876E0,-9.857011E0,-1.0901607E0,1.45339E0,5.9821887E0,-1.8936945E0,5.3923116E0,2.6263332E-1,1.3773035E1,2.9796712E0,7.989564E0,1.6931553E1,-2.7023468E0,5.7272234E0,1.3931995E1,-5.2018456E0,-8.5238355E-1,6.494033E0,-2.7691221E0,-1.1986112E1,-6.90863E0,-6.3650613E0,3.1322727E0,6.082126E0,8.589035E-2,4.504232E0,1.02905655E1,-6.1765933E-1,-5.209508E0,9.450321E0,1.7211537E0,-2.40621E-1,1.9543177E0,6.4445705E0,1.6518286E1,-3.4560776E-1,4.137376E0,9.22954E0,1.6980673E0,4.6357856E0,1.8068415E1,-9.457207E-3,-3.9589483E-1,-8.202019E-1,7.0695167E0,1.6547224E1,8.2056695E-1,-6.709835E-1,-2.4101551E-1,5.8274466E-1,-1.8811807E-1,1.2055672E0,4.843495E-1,1.339302E-1,-6.416026E-1,-1.0071162E0,-1.55198E0,-8.839726E-1,-1.9904171E-1,-9.5988464E-1,1.6937733E-1,-3.9369393E-2,6.714482E-1,1.6087912E-1,9.206953E-1,-6.5621346E-2,7.785545E-1,5.624373E-1,-4.8821557E-2,1.1742147E0,3.9642972E-1,-2.0564471E-1,2.7499548E-1,-1.6729012E-1,-6.7923915E-1,6.491803E-1,1.7466757E0,4.775187E-1,-9.441765E-2,2.3928642E-1,5.3861238E-2,6.9912636E-1,1.8555526E-1,1.8097028E0,6.275967E-1,5.6471485E-1,-2.3201525E-1,5.275E-1,-9.428755E-3,1.2275722E0,6.1768585E-1,-8.189946E-2,2.3652788E-1,2.9695129E-2,6.730965E-1,2.529671E0,1.6089293E0,-2.61205E-1,4.069519E-1,3.0441305E-1,8.1804734E-1,1.8097366E0,6.89777E-1],"categories":[],"categories_nodes":[],"categories_segments":[],"categories_sizes":[],"default_left":[0,0,0,0,0,0,0,0,0,0,0,0,0,0,0,0,0,0,0,0,0,0,0,0,0,0,0,0,0,0,0,0,0,0,0,0,0,0,0,0,0,0,0,0,0,0,0,0,0,0,0,0,0,0,0,0,0,0,0,0,0,0,0,0,0,0,0,0,0,0,0,0,0,0,0,0,0,0,0,0,0,0,0,0,0,0,0,0,0,0,0,0,0,0,0,0,0,0,0,0,0,0,0,0,0,0,0,0,0,0,0,0,0,0,0,0,0,0,0],"id":8,"left_children":[1,3,5,7,9,11,13,15,17,19,21,23,25,27,29,31,33,35,37,39,41,43,45,47,49,51,53,55,57,59,61,63,65,67,69,71,73,75,77,79,81,83,85,87,89,91,93,-1,95,97,99,101,103,105,107,109,111,-1,-1,113,115,117,-1,-1,-1,-1,-1,-1,-1,-1,-1,-1,-1,-1,-1,-1,-1,-1,-1,-1,-1,-1,-1,-1,-1,-1,-1,-1,-1,-1,-1,-1,-1,-1,-1,-1,-1,-1,-1,-1,-1,-1,-1,-1,-1,-1,-1,-1,-1,-1,-1,-1,-1,-1,-1,-1,-1,-1,-1],"loss_changes":[1.9567012E4,1.49941455E4,2.8282227E3,5.4824033E3,8.249361E3,7.838452E2,1.2172246E3,4.0408813E3,1.5473291E3,3.237997E3,4.2704185E3,4.5508203E2,4.9467737E2,8.3888965E2,6.271804E2,2.1784956E3,7.5249255E2,1.0345684E3,5.544871E2,1.9427247E3,2.0422217E3,2.937393E3,1.3394158E3,2.276186E1,2.1544238E2,2.709082E2,2.1056543E2,6.8506055E2,9.456392E0,2.6945532E2,1.03829346E2,1.3814961E3,1.2342123E3,4.097732E2,1.734063E2,5.3391504E2,7.137158E2,3.029241E2,1.7947392E2,9.6367554E2,1.3650273E3,1.3784385E3,7.156465E2,2.442832E3,1.0690581E3,9.0643066E2,4.0336896E2,0E0,5.737314E-1,2.0800476E0,6.429346E1,2.3792857E2,2.5082751E2,1.473512E2,1.201362E1,5.2545044E1,3.0827734E2,0E0,0E0,6.3199604E1,8.6898315E1,2.4749023E1,0E0,0E0,0E0,0E0,0E0,0E0,0E0,0E0,0E0,0E0,0E0,0E0,0E0,0E0,0E0,0E0,0E0,0E0,0E0,0E0,0E0,0E0,0E0,0E0,0E0,0E0,0E0,0E0,0E0,0E0,0E0,0E0,0E0,0E0,0E0,0E0,0E0,0E0,0E0,0E0,0E0,0E0,0E0,0E0,0E0,0E0,0E0,0E0,0E0,0E0,0E0,0E0,0E0,0E0,0E0,0E0,0E0],"parents":[2147483647,0,0,1,1,2,2,3,3,4,4,5,5,6,6,7,7,8,8,9,9,10,10,11,11,12,12,13,13,14,14,15,15,16,16,17,17,18,18,19,19,20,20,21,21,22,22,23,23,24,24,25,25,26,26,27,27,28,28,29,29,30,30,31,31,32,32,33,33,34,34,35,35,36,36,37,37,38,38,39,39,40,40,41,41,42,42,43,43,44,44,45,45,46,46,48,48,49,49,50,50,51,51,52,52,53,53,54,54,55,55,56,56,59,59,60,60,61,61],"right_children":[2,4,6,8,10,12,14,16,18,20,22,24,26,28,30,32,34,36,38,40,42,44,46,48,50,52,54,56,58,60,62,64,66,68,70,72,74,76,78,80,82,84,86,88,90,92,94,-1,96,98,100,102,104,106,108,110,112,-1,-1,114,116,118,-1,-1,-1,-1,-1,-1,-1,-1,-1,-1,-1,-1,-1,-1,-1,-1,-1,-1,-1,-1,-1,-1,-1,-1,-1,-1,-1,-1,-1,-1,-1,-1,-1,-1,-1,-1,-1,-1,-1,-1,-1,-1,-1,-1,-1,-1,-1,-1,-1,-1,-1,-1,-1,-1,-1,-1,-1],"split_conditions":[2E0,5.885506E0,9.849388E0,1.8311401E1,6.6068826E0,-1.0152414E1,1.3855106E0,1E0,1E0,2.6946964E1,2.3349138E1,1.2571763E0,1E0,6.962225E0,1.830195E1,1E0,2.5851426E0,1.8586828E1,2.5483923E1,9.9017495E-1,1E0,2E0,5.0126825E5,-2.2711557E1,4.054072E1,1.7521717E1,2.9974117E0,8.197786E0,3.811863E6,1.1523495E0,4.944896E7,5.8627476E1,-1.3628655E1,1.0055794E0,3.5342148E7,1.42086E0,5.5391792E1,4.0653206E1,2.9243956E0,2.213655E7,1E0,1.8454432E0,2.8113909E0,1E0,1.0414006E0,1E0,1.337925E0,-2.40621E-1,1.3878645E6,6.751026E6,2.4323735E0,1.0175451E0,2.3721752E1,7.114336E6,4.8093685E6,2.4918828E6,-1.4954187E1,-9.457207E-3,-3.9589483E-1,3.9043302E6,1.2870044E0,2.3565676E7,8.2056695E-1,-6.709835E-1,-2.4101551E-1,5.8274466E-1,-1.8811807E-1,1.2055672E0,4.843495E-1,1.339302E-1,-6.416026E-1,-1.0071162E0,-1.55198E0,-8.839726E-1,-1.9904171E-1,-9.5988464E-1,1.6937733E-1,-3.9369393E-2,6.714482E-1,1.6087912E-1,9.206953E-1,-6.5621346E-2,7.785545E-1,5.624373E-1,-4.8821557E-2,1.1742147E0,3.9642972E-1,-2.0564471E-1,2.7499548E-1,-1.6729012E-1,-6.7923915E-1,6.491803E-1,1.7466757E0,4.775187E-1,-9.441765E-2,2.3928642E-1,5.3861238E-2,6.9912636E-1,1.8555526E-1,1.8097028E0,6.275967E-1,5.6471485E-1,-2.3201525E-1,5.275E-1,-9.428755E-3,1.2275722E0,6.1768585E-1,-8.189946E-2,2.3652788E-1,2.9695129E-2,6.730965E-1,2.529671E0,1.6089293E0,-2.61205E-1,4.069519E-1,3.0441305E-1,8.1804734E-1,1.8097366E0,6.89777E-1],"split_indices":[15,12,12,3,3,3,10,18,18,22,12,12,19,5,12,15,4,13,3,6,19,21,1,3,17,22,5,13,0,4,8,17,3,4,8,10,17,22,5,9,18,10,3,15,10,19,6,0,0,0,4,4,3,11,0,0,3,0,0,0,5,0,0,0,0,0,0,0,0,0,0,0,0,0,0,0,0,0,0,0,0,0,0,0,0,0,0,0,0,0,0,0,0,0,0,0,0,0,0,0,0,0,0,0,0,0,0,0,0,0,0,0,0,0,0,0,0,0,0],"split_type":[0,0,0,0,0,0,0,0,0,0,0,0,0,0,0,0,0,0,0,0,0,0,0,0,0,0,0,0,0,0,0,0,0,0,0,0,0,0,0,0,0,0,0,0,0,0,0,0,0,0,0,0,0,0,0,0,0,0,0,0,0,0,0,0,0,0,0,0,0,0,0,0,0,0,0,0,0,0,0,0,0,0,0,0,0,0,0,0,0,0,0,0,0,0,0,0,0,0,0,0,0,0,0,0,0,0,0,0,0,0,0,0,0,0,0,0,0,0,0],"sum_hessian":[2.4E3,2.185E3,2.15E2,7.68E2,1.417E3,1.15E2,1E2,5.68E2,2E2,6.33E2,7.84E2,1.8E1,9.7E1,5.6E1,4.4E1,5.08E2,6E1,1.77E2,2.3E1,3.06E2,3.27E2,6.94E2,9E1,3E0,1.5E1,6.9E1,2.8E1,5.4E1,2E0,2.9E1,1.5E1,3.31E2,1.77E2,5E1,1E1,1.01E2,7.6E1,1E1,1.3E1,6.9E1,2.37E2,2.45E2,8.2E1,5.02E2,1.92E2,4.2E1,4.8E1,1E0,2E0,5E0,1E1,1.8E1,5.1E1,2.3E1,5E0,5E0,4.9E1,1E0,1E0,5E0,2.4E1,9E0,6E0,2.14E2,1.17E2,2.3E1,1.54E2,1E1,4E1,5E0,5E0,6.8E1,3.3E1,5.4E1,2.2E1,7E0,3E0,7E0,6E0,2.9E1,4E1,2.17E2,2E1,2E2,4.5E1,6.6E1,1.6E1,3.52E2,1.5E2,6E1,1.32E2,3.2E1,1E1,2.2E1,2.6E1,1E0,1E0,4E0,1E0,8E0,2E0,4E0,1.4E1,4E1,1.1E1,1E1,1.3E1,1E0,4E0,2E0,3E0,8E0,4.1E1,4E0,1E0,6E0,1.8E1,7E0,2E0],"tree_param":{"num_deleted":"0","num_feature":"24","num_nodes":"119","size_leaf_vector":"1"}},{"base_weights":[1.5832753E-1,-2.481255E0,2.5131032E0,-5.720693E-1,-5.7712507E0,5.968953E0,1.967366E-1,-1.3077948E0,5.7039394E0,-4.7585683E0,-1.0751022E1,5.258347E0,1.3131863E1,1.8587996E0,-3.8611023E0,-1.2808138E-1,-4.868388E0,1.7478842E0,8.607332E0,-4.0114822E0,-1.1059624E1,-3.573538E0,-1.2850385E1,3.2063751E0,8.369243E0,1.6217978E1,6.5246553E0,1.1273522E0,8.659274E0,-4.511915E0,6.8489122E0,-2.155186E0,1.801059E0,-7.413576E0,-1.6093725E0,-2.4988484E0,3.4445274E0,-1.1645648E0,9.639439E0,-5.502236E0,-1.7908405E0,-1.2650082E1,1.3312305E0,4.28697E0,-5.564145E0,-1.3967943E1,-1.7681799E0,1.3633882E0,6.409201E0,7.5135336E0,1.5359916E1,1.6705399E1,1.041378E-1,4.337221E0,9.447509E-1,3.6381975E-1,7.7780786E0,1.2744788E1,4.9795628E0,5.3797646E0,-5.091551E0,9.696207E0,3.540001E-1,-1.4835285E-1,-9.3013287E-1,4.9881288E-1,1.5767539E-2,-3.9058214E-1,-9.410899E-1,5.550428E-2,-6.1505455E-1,-2.433548E-2,-3.9619514E-1,5.33529E-1,-3.116975E-1,-2.6586977E-1,2.405983E-1,1.0710481E0,2.1425858E-2,-6.0306007E-1,7.3992E-3,-4.366462E-1,2.0152058E-2,-1.3973358E0,-2.7097222E-1,-6.8803185E-1,5.104198E-1,5.865776E-1,-2.2472382E-2,-8.509981E-1,-2.1803379E-2,-1.4201927E-1,-1.4204701E0,-6.607926E-1,2.3036747E-1,3.8389474E-1,-1.679127E-1,1.1731248E0,4.4341427E-1,6.317051E-1,1.1346066E0,2.0223348E0,9.9843884E-1,1.7203788E0,1.3752632E-1,6.539294E-2,5.0830716E-1,-6.5042764E-2,3.8331738E-1,8.507493E-1,-2.7370557E-1,1.4406921E0,5.357237E-1,8.386248E-1,2.0815352E-1,2.298086E-1,1.09686E0,-2.0967606E-1,-6.876249E-1,1.189586E0,1.3316129E-1,1.9266434E-1,-1.3366432E-1],"categories":[],"categories_nodes":[],"categories_segments":[],"categories_sizes":[],"default_left":[0,0,0,0,0,0,0,0,0,0,0,0,0,0,0,0,0,0,0,0,0,0,0,0,0,0,0,0,0,0,0,0,0,0,0,0,0,0,0,0,0,0,0,0,0,0,0,0,0,0,0,0,0,0,0,0,0,0,0,0,0,0,0,0,0,0,0,0,0,0,0,0,0,0,0,0,0,0,0,0,0,0,0,0,0,0,0,0,0,0,0,0,0,0,0,0,0,0,0,0,0,0,0,0,0,0,0,0,0,0,0,0,0,0,0,0,0,0,0,0,0,0,0],"id":9,"left_children":[1,3,5,7,9,11,13,15,17,19,21,23,25,27,29,31,33,35,37,39,41,43,45,47,49,51,53,55,57,59,61,63,65,67,69,71,73,75,77,79,81,83,85,87,89,91,93,95,97,99,101,103,-1,105,-1,107,109,111,113,115,117,119,121,-1,-1,-1,-1,-1,-1,-1,-1,-1,-1,-1,-1,-1,-1,-1,-1,-1,-1,-1,-1,-1,-1,-1,-1,-1,-1,-1,-1,-1,-1,-1,-1,-1,-1,-1,-1,-1,-1,-1,-1,-1,-1,-1,-1,-1,-1,-1,-1,-1,-1,-1,-1,-1,-1,-1,-1,-1,-1,-1,-1],"loss_changes":[1.4830502E4,7.063063E3,1.009315E4,3.29968E3,2.0315693E3,2.5064902E3,5.1059316E3,2.683483E3,8.464043E2,1.5796968E3,9.937798E2,2.922329E3,8.1176025E2,2.6613774E3,1.5643491E3,1.8848656E3,1.3069431E3,2.4637866E2,4.449077E2,1.0163789E3,7.262969E2,2.898554E2,6.31709E2,1.6440364E3,9.792959E2,2.0452539E2,6.132086E1,2.4651003E3,7.182788E2,1.2199741E3,2.3697559E2,1.1141451E3,1.2928955E3,5.867871E2,7.012717E2,3.2036037E1,3.143798E2,3.3071144E1,3.9140112E2,5.455088E2,6.474574E2,3.8305908E2,1.9002802E2,2.9810532E1,2.1862723E2,1.2242383E2,1.3346298E2,1.354661E3,1.02013965E3,6.8494336E2,2.9480908E2,1.9791064E2,0E0,2.6895065E1,0E0,1.5402015E3,4.067798E2,2.1751685E2,2.6885114E2,1.8146915E2,1.0385068E3,1.4975226E2,1.586913E1,0E0,0E0,0E0,0E0,0E0,0E0,0E0,0E0,0E0,0E0,0E0,0E0,0E0,0E0,0E0,0E0,0E0,0E0,0E0,0E0,0E0,0E0,0E0,0E0,0E0,0E0,0E0,0E0,0E0,0E0,0E0,0E0,0E0,0E0,0E0,0E0,0E0,0E0,0E0,0E0,0E0,0E0,0E0,0E0,0E0,0E0,0E0,0E0,0E0,0E0,0E0,0E0,0E0,0E0,0E0,0E0,0E0,0E0,0E0,0E0],"parents":[2147483647,0,0,1,1,2,2,3,3,4,4,5,5,6,6,7,7,8,8,9,9,10,10,11,11,12,12,13,13,14,14,15,15,16,16,17,17,18,18,19,19,20,20,21,21,22,22,23,23,24,24,25,25,26,26,27,27,28,28,29,29,30,30,31,31,32,32,33,33,34,34,35,35,36,36,37,37,38,38,39,39,40,40,41,41,42,42,43,43,44,44,45,45,46,46,47,47,48,48,49,49,50,50,51,51,53,53,55,55,56,56,57,57,58,58,59,59,60,60,61,61,62,62],"right_children":[2,4,6,8,10,12,14,16,18,20,22,24,26,28,30,32,34,36,38,40,42,44,46,48,50,52,54,56,58,60,62,64,66,68,70,72,74,76,78,80,82,84,86,88,90,92,94,96,98,100,102,104,-1,106,-1,108,110,112,114,116,118,120,122,-1,-1,-1,-1,-1,-1,-1,-1,-1,-1,-1,-1,-1,-1,-1,-1,-1,-1,-1,-1,-1,-1,-1,-1,-1,-1,-1,-1,-1,-1,-1,-1,-1,-1,-1,-1,-1,-1,-1,-1,-1,-1,-1,-1,-1,-1,-1,-1,-1,-1,-1,-1,-1,-1,-1,-1,-1,-1,-1,-1],"split_conditions":[8.477775E0,1.24271145E1,4.650926E0,1E0,2.0057066E1,1E0,1.6150345E1,1.7441763E1,2.2458834E1,3E0,1.028118E0,3.3239758E1,2E0,1E0,2.9884514E1,2.6524403E1,1E0,2.2439445E6,1.2180877E0,3.0800592E1,1E0,2.5900378E6,2E0,1.7701609E1,2E0,5.2068996E0,1.7448477E0,2.569134E1,1E0,7.6410246E-1,1.3206766E0,3E0,1E0,-4.005031E0,2.5027748E1,1.2013564E6,6.834507E7,6.3429335E6,3.6568222E0,1E0,1.7569492E1,4.885492E1,1.5015351E1,8.504498E6,2.9036528E1,3.5148238E5,1.2159584E0,1.2625145E1,4.9013643E0,1.5733354E8,9.021447E0,1.20643384E8,1.041378E-1,9.625243E-1,9.447509E-1,1E0,3.642723E1,4.1964355E0,7.1394496E0,1E0,1E0,2.4154844E0,7.464406E6,-1.4835285E-1,-9.3013287E-1,4.9881288E-1,1.5767539E-2,-3.9058214E-1,-9.410899E-1,5.550428E-2,-6.1505455E-1,-2.433548E-2,-3.9619514E-1,5.33529E-1,-3.116975E-1,-2.6586977E-1,2.405983E-1,1.0710481E0,2.1425858E-2,-6.0306007E-1,7.3992E-3,-4.366462E-1,2.0152058E-2,-1.3973358E0,-2.7097222E-1,-6.8803185E-1,5.104198E-1,5.865776E-1,-2.2472382E-2,-8.509981E-1,-2.1803379E-2,-1.4201927E-1,-1.4204701E0,-6.607926E-1,2.3036747E-1,3.8389474E-1,-1.679127E-1,1.1731248E0,4.4341427E-1,6.317051E-1,1.1346066E0,2.0223348E0,9.9843884E-1,1.7203788E0,1.3752632E-1,6.539294E-2,5.0830716E-1,-6.5042764E-2,3.8331738E-1,8.507493E-1,-2.7370557E-1,1.4406921E0,5.357237E-1,8.386248E-1,2.0815352E-1,2.298086E-1,1.09686E0,-2.0967606E-1,-6.876249E-1,1.189586E0,1.3316129E-1,1.9266434E-1,-1.3366432E-1],"split_indices":[12,3,3,18,2,18,2,2,22,21,10,22,21,18,12,22,20,0,12,22,19,8,20,12,20,4,4,12,21,6,10,21,21,3,2,0,11,0,5,18,13,22,3,0,22,0,10,2,2,9,2,0,0,10,0,19,3,5,2,20,21,4,0,0,0,0,0,0,0,0,0,0,0,0,0,0,0,0,0,0,0,0,0,0,0,0,0,0,0,0,0,0,0,0,0,0,0,0,0,0,0,0,0,0,0,0,0,0,0,0,0,0,0,0,0,0,0,0,0,0,0,0,0],"split_type":[0,0,0,0,0,0,0,0,0,0,0,0,0,0,0,0,0,0,0,0,0,0,0,0,0,0,0,0,0,0,0,0,0,0,0,0,0,0,0,0,0,0,0,0,0,0,0,0,0,0,0,0,0,0,0,0,0,0,0,0,0,0,0,0,0,0,0,0,0,0,0,0,0,0,0,0,0,0,0,0,0,0,0,0,0,0,0,0,0,0,0,0,0,0,0,0,0,0,0,0,0,0,0,0,0,0,0,0,0,0,0,0,0,0,0,0,0,0,0,0,0,0,0],"sum_hessian":[2.384E3,1.124E3,1.26E3,7.12E2,4.12E2,5.05E2,7.55E2,6.38E2,7.4E1,3.44E2,6.8E1,4.61E2,4.4E1,5.36E2,2.19E2,4.8E2,1.58E2,3.2E1,4.2E1,3.09E2,3.5E1,1.6E1,5.2E1,2.79E2,1.82E2,2.9E1,1.5E1,4.85E2,5.1E1,2.07E2,1.2E1,2.34E2,2.46E2,8.8E1,7E1,9E0,2.3E1,4E0,3.8E1,1.84E2,1.25E2,3.1E1,4E0,3E0,1.3E1,4.7E1,5E0,1.78E2,1.01E2,1.64E2,1.8E1,2.8E1,1E0,1E1,5E0,4.36E2,4.9E1,2.3E1,2.8E1,1.1E1,1.96E2,8E0,4E0,2.15E2,1.9E1,8.3E1,1.63E2,3.3E1,5.5E1,4.8E1,2.2E1,4E0,5E0,1.8E1,5E0,3E0,1E0,3.4E1,4E0,1.68E2,1.6E1,5.4E1,7.1E1,2.7E1,4E0,1E0,3E0,2E0,1E0,8E0,5E0,1E0,4.6E1,2E0,3E0,9.8E1,8E1,2.6E1,7.5E1,1.27E2,3.7E1,8E0,1E1,2.7E1,1E0,2E0,8E0,3.38E2,9.8E1,4.6E1,3E0,1.8E1,5E0,1.2E1,1.6E1,8E0,3E0,7.4E1,1.22E2,6E0,2E0,2E0,2E0],"tree_param":{"num_deleted":"0","num_feature":"24","num_nodes":"123","size_leaf_vector":"1"}},{"base_weights":[2.1185793E-1,-1.0571636E0,6.442795E0,-2.9120507E0,1.804113E0,3.9662516E0,1.0163777E1,-1.171673E0,-5.4330244E0,5.3195417E-1,6.1135106E0,1.0806465E1,2.8399014E0,1.0924575E1,7.205564E-1,-2.3956132E0,2.4998536E0,-6.88278E0,-1.7698272E0,1.6803827E0,-3.5611775E0,4.133877E0,8.516931E0,2.0397335E1,8.449511E0,3.3244297E-1,5.296913E0,1.1451691E1,2.5052185E0,2.3678455E0,-3.5778055E-1,-4.0358415E0,-1.3238585E-1,8.381184E0,1.6597954E0,4.0107102E0,-7.520203E0,1.786433E0,-3.7653766E0,2.968026E0,-1.5704839E0,-5.7468047E0,1.609435E0,-4.317712E0,4.725568E0,7.328537E0,1.8147861E1,5.9533006E-1,2.2095482E0,5.6859493E-1,9.336978E0,1.9413701E0,-3.7545872E0,7.4750533E0,-2.139108E-1,8.97646E0,1.3013575E1,-1.489743E0,5.4168167E0,-2.6366195E-1,4.1661277E0,-1.1981461E-1,-5.576395E-1,1.1268461E-1,-5.488364E-1,2.3291616E-1,1.1050184E0,8.4577285E-2,6.891286E-1,5.7239646E-1,-2.2738464E-1,-8.9657825E-1,-5.2161485E-1,6.3534975E-1,3.7165277E-2,-4.5723626E-1,8.294488E-1,7.217464E-1,2.0954779E-1,-2.569418E-1,3.1150228E-1,-7.531654E-1,1.2808178E-3,3.829063E-1,-4.5904085E-1,1.0494665E-1,-6.674476E-1,7.535528E-1,3.0544975E-1,8.0431837E-1,-1.8731003E-1,7.7384126E-1,2.0327942E0,7.457402E-2,1.8579484E-3,1.0291764E0,3.2685265E-1,-4.6556488E-2,5.858319E-1,-7.58183E-1,1.1609639E-1,6.26648E-1,1.1972152E0,-5.5573434E-1,2.2246455E-1,1.0500839E0,1.647167E-1,1.1206672E0,1.7239987E0,-5.2001956E-3,-3.6203536E-1,5.8524895E-1,1.6192265E-1,-1.3773856E-1,9.379489E-2,4.716282E-2,4.810702E-1],"categories":[],"categories_nodes":[],"categories_segments":[],"categories_sizes":[],"default_left":[0,0,0,0,0,0,0,0,0,0,0,0,0,0,0,0,0,0,0,0,0,0,0,0,0,0,0,0,0,0,0,0,0,0,0,0,0,0,0,0,0,0,0,0,0,0,0,0,0,0,0,0,0,0,0,0,0,0,0,0,0,0,0,0,0,0,0,0,0,0,0,0,0,0,0,0,0,0,0,0,0,0,0,0,0,0,0,0,0,0,0,0,0,0,0,0,0,0,0,0,0,0,0,0,0,0,0,0,0,0,0,0,0,0,0,0,0],"id":10,"left_children":[1,3,5,7,9,11,13,15,17,19,21,23,25,27,29,31,33,35,37,39,41,43,45,47,49,51,53,55,57,59,-1,61,63,65,67,69,71,73,75,77,79,81,83,85,87,89,91,-1,-1,93,95,97,99,101,103,105,107,109,111,113,115,-1,-1,-1,-1,-1,-1,-1,-1,-1,-1,-1,-1,-1,-1,-1,-1,-1,-1,-1,-1,-1,-1,-1,-1,-1,-1,-1,-1,-1,-1,-1,-1,-1,-1,-1,-1,-1,-1,-1,-1,-1,-1,-1,-1,-1,-1,-1,-1,-1,-1,-1,-1,-1,-1,-1,-1],"loss_changes":[1.8786395E4,1.0481953E4,3.6641875E3,5.249794E3,4.2564463E3,1.8414983E3,1.1416289E3,3.196536E3,2.5847705E3,2.8310862E3,8.0693896E2,5.9623096E2,1.2920188E3,6.2813086E2,1.0052008E2,1.9780732E3,8.655261E2,2.4604785E3,1.00026355E3,1.9720607E3,1.5009856E3,5.154757E2,7.711846E2,1.5627441E1,1.9751855E2,6.97741E2,1.2739536E3,4.2056445E2,1.2438687E2,4.8420372E1,0E0,1.3441494E3,1.5236788E3,3.2962488E2,6.6276416E2,2.2835632E2,1.0556934E3,3.271697E2,9.138181E2,1.2344175E3,6.351924E2,9.561399E2,5.6803076E2,9.554886E1,4.1367725E2,4.8853174E2,2.42417E1,0E0,0E0,3.7587512E-1,1.1700659E2,7.192434E2,5.731925E2,3.3804248E2,4.163012E2,6.195425E2,4.4064355E2,1.5128068E1,4.5054626E-1,7.983228E0,1.2019417E1,0E0,0E0,0E0,0E0,0E0,0E0,0E0,0E0,0E0,0E0,0E0,0E0,0E0,0E0,0E0,0E0,0E0,0E0,0E0,0E0,0E0,0E0,0E0,0E0,0E0,0E0,0E0,0E0,0E0,0E0,0E0,0E0,0E0,0E0,0E0,0E0,0E0,0E0,0E0,0E0,0E0,0E0,0E0,0E0,0E0,0E0,0E0,0E0,0E0,0E0,0E0,0E0,0E0,0E0,0E0,0E0],"parents":[2147483647,0,0,1,1,2,2,3,3,4,4,5,5,6,6,7,7,8,8,9,9,10,10,11,11,12,12,13,13,14,14,15,15,16,16,17,17,18,18,19,19,20,20,21,21,22,22,23,23,24,24,25,25,26,26,27,27,28,28,29,29,31,31,32,32,33,33,34,34,35,35,36,36,37,37,38,38,39,39,40,40,41,41,42,42,43,43,44,44,45,45,46,46,49,49,50,50,51,51,52,52,53,53,54,54,55,55,56,56,57,57,58,58,59,59,60,60],"right_children":[2,4,6,8,10,12,14,16,18,20,22,24,26,28,30,32,34,36,38,40,42,44,46,48,50,52,54,56,58,60,-1,62,64,66,68,70,72,74,76,78,80,82,84,86,88,90,92,-1,-1,94,96,98,100,102,104,106,108,110,112,114,116,-1,-1,-1,-1,-1,-1,-1,-1,-1,-1,-1,-1,-1,-1,-1,-1,-1,-1,-1,-1,-1,-1,-1,-1,-1,-1,-1,-1,-1,-1,-1,-1,-1,-1,-1,-1,-1,-1,-1,-1,-1,-1,-1,-1,-1,-1,-1,-1,-1,-1,-1,-1,-1,-1,-1,-1],"split_conditions":[1E0,1E0,1E0,1.3460009E1,2E0,8.3674985E-1,2.2629128E1,1E0,6.092687E1,1.7726982E1,1E0,7.727367E4,5.147608E1,3.6658325E0,1.1872016E8,1E0,8.947756E-1,6.341883E-1,1E0,2E0,1E0,3.3539535E6,1E0,5.480074E3,2.0558298E6,1.724323E1,2E0,4.285198E1,2.1166384E7,1.36646805E1,-3.5778055E-1,1E0,1.8017663E0,2.367626E1,1E0,2E0,3.0800592E1,1.1081262E0,2E0,1.0055794E0,1.735747E8,3.5535885E1,7.77E2,8.785157E-1,9.232645E0,5.3147163E0,8.836128E-1,5.9533006E-1,2.2095482E0,3.470899E5,4.6557713E1,1E0,2.9036528E1,7.64106E1,1.4318332E7,1.5929126E0,3.7059113E1,9.232645E0,1.7323334E1,2.0558298E6,2.3620934E1,-1.1981461E-1,-5.576395E-1,1.1268461E-1,-5.488364E-1,2.3291616E-1,1.1050184E0,8.4577285E-2,6.891286E-1,5.7239646E-1,-2.2738464E-1,-8.9657825E-1,-5.2161485E-1,6.3534975E-1,3.7165277E-2,-4.5723626E-1,8.294488E-1,7.217464E-1,2.0954779E-1,-2.569418E-1,3.1150228E-1,-7.531654E-1,1.2808178E-3,3.829063E-1,-4.5904085E-1,1.0494665E-1,-6.674476E-1,7.535528E-1,3.0544975E-1,8.0431837E-1,-1.8731003E-1,7.7384126E-1,2.0327942E0,7.457402E-2,1.8579484E-3,1.0291764E0,3.2685265E-1,-4.6556488E-2,5.858319E-1,-7.58183E-1,1.1609639E-1,6.26648E-1,1.1972152E0,-5.5573434E-1,2.2246455E-1,1.0500839E0,1.647167E-1,1.1206672E0,1.7239987E0,-5.2001956E-3,-3.6203536E-1,5.8524895E-1,1.6192265E-1,-1.3773856E-1,9.379489E-2,4.716282E-2,4.810702E-1],"split_indices":[16,15,15,2,15,6,2,19,17,2,20,1,17,4,11,20,4,6,21,21,19,9,18,1,0,2,21,17,11,13,0,21,10,22,18,21,22,4,19,4,9,22,14,5,2,5,6,0,0,1,22,20,22,17,11,10,22,2,2,0,2,0,0,0,0,0,0,0,0,0,0,0,0,0,0,0,0,0,0,0,0,0,0,0,0,0,0,0,0,0,0,0,0,0,0,0,0,0,0,0,0,0,0,0,0,0,0,0,0,0,0,0,0,0,0,0,0],"split_type":[0,0,0,0,0,0,0,0,0,0,0,0,0,0,0,0,0,0,0,0,0,0,0,0,0,0,0,0,0,0,0,0,0,0,0,0,0,0,0,0,0,0,0,0,0,0,0,0,0,0,0,0,0,0,0,0,0,0,0,0,0,0,0,0,0,0,0,0,0,0,0,0,0,0,0,0,0,0,0,0,0,0,0,0,0,0,0,0,0,0,0,0,0,0,0,0,0,0,0,0,0,0,0,0,0,0,0,0,0,0,0,0,0,0,0,0,0],"sum_hessian":[2.374E3,1.973E3,4.01E2,1.197E3,7.76E2,2.42E2,1.59E2,7.09E2,4.88E2,6E2,1.76E2,3.3E1,2.09E2,1.47E2,1.2E1,5.32E2,1.77E2,3.49E2,1.39E2,4.69E2,1.31E2,9.8E1,7.8E1,5E0,2.8E1,1.04E2,1.05E2,1.38E2,9E0,9E0,3E0,3.08E2,2.24E2,2.1E1,1.56E2,1.9E1,3.3E2,5E1,8.9E1,3.36E2,1.33E2,9.2E1,3.9E1,6E0,9.2E1,7.1E1,7E0,1E0,4E0,3E0,2.5E1,7.5E1,2.9E1,7.5E1,3E1,5.6E1,8.2E1,4E0,5E0,4E0,5E0,1.09E2,1.99E2,1.82E2,4.2E1,7E0,1.4E1,1.36E2,2E1,1.5E1,4E0,2.01E2,1.29E2,1.1E1,3.9E1,8.4E1,5E0,5.6E1,2.8E2,1.1E2,2.3E1,7E1,2.2E1,2.9E1,1E1,2E0,4E0,3.3E1,5.9E1,6.6E1,5E0,2E0,5E0,2E0,1E0,2.1E1,4E0,4.7E1,2.8E1,1.6E1,1.3E1,6.1E1,1.4E1,9E0,2.1E1,4.6E1,1E1,6E1,2.2E1,3E0,1E0,4E0,1E0,2E0,2E0,1E0,4E0],"tree_param":{"num_deleted":"0","num_feature":"24","num_nodes":"117","size_leaf_vector":"1"}},{"base_weights":[1.7758228E-1,-1.7360498E0,3.6891022E0,-3.7333295E0,1.32145E0,2.9045832E0,1.2447264E1,-2.7377932E0,-7.8993726E0,3.6018946E0,-7.1672887E-1,4.8002357E0,2.0855041E-1,1.0590547E1,2.0384123E0,-1.6028279E0,-5.786076E0,-2.4013784E0,-8.729824E0,6.4220138E0,1.9576854E0,-1.936244E0,3.8182364E0,3.910492E0,1.2440765E1,3.609989E0,-9.9283355E-1,1.7339893E1,8.641978E0,-2.87416E0,1.5104415E0,-7.796354E0,-2.3430638E0,-4.0216403E0,3.3997242E0,-9.471245E0,-2.110491E0,3.7343404E0,8.059864E0,2.5197282E-1,5.3100233E0,-6.3699E-1,-6.565062E0,2.1384568E0,9.248853E0,5.1170206E0,-8.900538E-1,1.6111853E1,9.124706E0,8.333122E-1,6.1153016E0,-3.2212734E0,5.364024E-1,4.5156118E-1,1.8095229E0,9.748487E0,2.0291824E0,-2.1442004E-1,-6.9701326E-1,5.1673055E-1,-8.864491E-3,-8.36524E-1,7.1827196E-2,8.4492016E-1,-3.0501634E-1,7.8470856E-2,-6.1375546E-1,6.075452E-2,4.6439275E-1,-8.1773406E-1,-1.326467E0,-3.801473E-1,4.3355685E-1,5.385667E-1,-1.4090034E-1,9.078888E-1,3.6992133E-1,1.4467275E-1,-5.9733504E-1,7.657397E-1,-3.2850704E-1,-1.4899819E-1,5.4276717E-1,-5.115637E-1,-1.2029469E0,6.102367E-1,7.327689E-2,1.0985205E0,3.2318375E-1,6.682906E-1,1.1645291E-1,-1.6973327E-1,1.2042965E0,1.7378834E0,2.7170208E-1,1.0777533E0,5.2371496E-1,4.4364166E-1,-1.4160334E-1,7.756665E-1,2.4248879E-1,-2.0646326E-1,-7.0705205E-1,-1.6736746E-2,6.506145E-1,1.3244462E0,7.965723E-1,3.7373963E-1,-2.0636395E-1],"categories":[],"categories_nodes":[],"categories_segments":[],"categories_sizes":[],"default_left":[0,0,0,0,0,0,0,0,0,0,0,0,0,0,0,0,0,0,0,0,0,0,0,0,0,0,0,0,0,0,0,0,0,0,0,0,0,0,0,0,0,0,0,0,0,0,0,0,0,0,0,0,0,0,0,0,0,0,0,0,0,0,0,0,0,0,0,0,0,0,0,0,0,0,0,0,0,0,0,0,0,0,0,0,0,0,0,0,0,0,0,0,0,0,0,0,0,0,0,0,0,0,0,0,0,0,0,0,0],"id":11,"left_children":[1,3,5,7,9,11,13,15,17,19,21,23,25,27,-1,29,31,33,35,37,39,41,43,45,47,49,51,53,55,57,59,61,63,65,67,69,71,73,75,77,79,81,83,85,87,89,91,93,95,97,99,101,103,-1,-1,105,107,-1,-1,-1,-1,-1,-1,-1,-1,-1,-1,-1,-1,-1,-1,-1,-1,-1,-1,-1,-1,-1,-1,-1,-1,-1,-1,-1,-1,-1,-1,-1,-1,-1,-1,-1,-1,-1,-1,-1,-1,-1,-1,-1,-1,-1,-1,-1,-1,-1,-1,-1,-1],"loss_changes":[1.6059903E4,9.451971E3,5.756052E3,3.8603848E3,2.8471296E3,3.9598232E3,8.0093945E2,2.6097148E3,8.008828E2,1.3274822E3,1.7992617E3,3.0444912E3,1.3153293E3,6.1293945E2,0E0,2.1931147E3,1.4006221E3,2.4865512E2,7.456133E2,4.3651416E2,1.050797E3,1.5354048E3,6.096562E2,2.3734805E3,4.2514062E2,5.7924524E2,8.1278687E2,3.452832E1,3.2412354E2,1.1600835E3,9.4192834E2,6.308662E2,6.1337415E2,2.0821262E2,1.8022827E1,5.786963E2,2.0178442E2,3.6430865E2,2.5525E2,9.234829E2,1.2760603E3,1.0478815E3,3.819956E2,2.9641745E2,1.3166003E2,2.0160684E3,8.870069E2,3.0917188E2,1.17043945E2,3.3857184E2,2.4771252E2,4.172649E2,5.976771E2,0E0,0E0,1.437981E2,6.364396E1,0E0,0E0,0E0,0E0,0E0,0E0,0E0,0E0,0E0,0E0,0E0,0E0,0E0,0E0,0E0,0E0,0E0,0E0,0E0,0E0,0E0,0E0,0E0,0E0,0E0,0E0,0E0,0E0,0E0,0E0,0E0,0E0,0E0,0E0,0E0,0E0,0E0,0E0,0E0,0E0,0E0,0E0,0E0,0E0,0E0,0E0,0E0,0E0,0E0,0E0,0E0,0E0],"parents":[2147483647,0,0,1,1,2,2,3,3,4,4,5,5,6,6,7,7,8,8,9,9,10,10,11,11,12,12,13,13,15,15,16,16,17,17,18,18,19,19,20,20,21,21,22,22,23,23,24,24,25,25,26,26,27,27,28,28,29,29,30,30,31,31,32,32,33,33,34,34,35,35,36,36,37,37,38,38,39,39,40,40,41,41,42,42,43,43,44,44,45,45,46,46,47,47,48,48,49,49,50,50,51,51,52,52,55,55,56,56],"right_children":[2,4,6,8,10,12,14,16,18,20,22,24,26,28,-1,30,32,34,36,38,40,42,44,46,48,50,52,54,56,58,60,62,64,66,68,70,72,74,76,78,80,82,84,86,88,90,92,94,96,98,100,102,104,-1,-1,106,108,-1,-1,-1,-1,-1,-1,-1,-1,-1,-1,-1,-1,-1,-1,-1,-1,-1,-1,-1,-1,-1,-1,-1,-1,-1,-1,-1,-1,-1,-1,-1,-1,-1,-1,-1,-1,-1,-1,-1,-1,-1,-1,-1,-1,-1,-1,-1,-1,-1,-1,-1,-1],"split_conditions":[2.0725121E0,1E0,5.2721095E0,2.1879229E1,6.1022167E0,1.3460009E1,7.665875E0,2E0,9.223084E-1,1E0,2E0,2E0,-1.0393646E0,-1.2248884E1,2.0384123E0,5.9079163E1,1E0,9.754884E7,6.879386E1,4.2645428E1,1E0,1.820092E1,3E0,2.1879229E1,2.5720178E5,1.882844E1,1.3163307E1,1.4102067E1,3.7937841E0,2.0431887E1,6.338993E0,1E0,6.341883E-1,1E0,2.624935E0,2E0,2E0,2.8113909E0,3.6093895E0,1.8758196E1,7.56E2,1E0,3.7937841E0,5.149212E0,2.8285439E1,2E0,2E0,1.6881708E1,7.5E2,1.4359581E0,2.0521376E1,7.74E2,4.145376E0,4.5156118E-1,1.8095229E0,1.9339673E5,1.3944987E1,-2.1442004E-1,-6.9701326E-1,5.1673055E-1,-8.864491E-3,-8.36524E-1,7.1827196E-2,8.4492016E-1,-3.0501634E-1,7.8470856E-2,-6.1375546E-1,6.075452E-2,4.6439275E-1,-8.1773406E-1,-1.326467E0,-3.801473E-1,4.3355685E-1,5.385667E-1,-1.4090034E-1,9.078888E-1,3.6992133E-1,1.4467275E-1,-5.9733504E-1,7.657397E-1,-3.2850704E-1,-1.4899819E-1,5.4276717E-1,-5.115637E-1,-1.2029469E0,6.102367E-1,7.327689E-2,1.0985205E0,3.2318375E-1,6.682906E-1,1.1645291E-1,-1.6973327E-1,1.2042965E0,1.7378834E0,2.7170208E-1,1.0777533E0,5.2371496E-1,4.4364166E-1,-1.4160334E-1,7.756665E-1,2.4248879E-1,-2.0646326E-1,-7.0705205E-1,-1.6736746E-2,6.506145E-1,1.3244462E0,7.965723E-1,3.7373963E-1,-2.0636395E-1],"split_indices":[7,15,7,3,3,2,7,21,4,21,15,15,3,3,0,17,20,9,23,17,19,2,15,3,1,13,13,17,5,2,2,18,6,21,5,21,20,3,5,2,14,18,5,2,3,21,18,3,14,4,2,14,7,0,0,1,2,0,0,0,0,0,0,0,0,0,0,0,0,0,0,0,0,0,0,0,0,0,0,0,0,0,0,0,0,0,0,0,0,0,0,0,0,0,0,0,0,0,0,0,0,0,0,0,0,0,0,0,0],"split_type":[0,0,0,0,0,0,0,0,0,0,0,0,0,0,0,0,0,0,0,0,0,0,0,0,0,0,0,0,0,0,0,0,0,0,0,0,0,0,0,0,0,0,0,0,0,0,0,0,0,0,0,0,0,0,0,0,0,0,0,0,0,0,0,0,0,0,0,0,0,0,0,0,0,0,0,0,0,0,0,0,0,0,0,0,0,0,0,0,0,0,0,0,0,0,0,0,0,0,0,0,0,0,0,0,0,0,0,0,0],"sum_hessian":[2.388E3,1.546E3,8.42E2,9.35E2,6.11E2,7.74E2,6.8E1,7.56E2,1.79E2,2.88E2,3.23E2,4.54E2,3.2E2,5.7E1,1.1E1,5.52E2,2.04E2,2.4E1,1.55E2,1.05E2,1.83E2,2.55E2,6.8E1,4.08E2,4.6E1,8.3E1,2.37E2,1.1E1,4.6E1,3.92E2,1.6E2,1.28E2,7.6E1,1.9E1,5E0,1.39E2,1.6E1,4.1E1,6.4E1,1.22E2,6.1E1,2E2,5.5E1,5.3E1,1.5E1,3.26E2,8.2E1,2E1,2.6E1,4E1,4.3E1,9.6E1,1.41E2,1E0,1E1,3.9E1,7E0,3.34E2,5.8E1,4.8E1,1.12E2,1.2E2,8E0,4E0,7.2E1,6E0,1.3E1,2E0,3E0,1.06E2,3.3E1,1.3E1,3E0,3.1E1,1E1,5.1E1,1.3E1,1.03E2,1.9E1,4.8E1,1.3E1,1.76E2,2.4E1,4.5E1,1E1,1.3E1,4E1,1.1E1,4E0,2.33E2,9.3E1,7.8E1,4E0,1.8E1,2E0,1.7E1,9E0,1.5E1,2.5E1,2.9E1,1.4E1,7.5E1,2.1E1,1.27E2,1.4E1,1.1E1,2.8E1,5E0,2E0],"tree_param":{"num_deleted":"0","num_feature":"24","num_nodes":"109","size_leaf_vector":"1"}},{"base_weights":[-1.3083868E-1,-1.2412584E0,5.2617865E0,-3.067357E0,1.5621974E0,3.666398E0,9.802652E0,-6.349089E0,-1.2340982E0,8.161374E-2,5.276512E0,2.9606988E0,1.1805594E1,8.256804E0,1.5666472E1,-5.1713853E0,-1.025822E1,2.5305092E0,-2.4525988E0,-2.4095063E0,2.3208308E0,9.383285E0,3.916812E0,2.3577657E0,9.647739E0,1.2527379E1,2.5773114E-1,9.230275E0,1.4845486E0,1.6077324E1,3.7247315E-1,-8.358749E0,-3.6321487E0,2.107839E0,-1.06666155E1,1.8157657E0,1.2981224E1,-3.1693165E0,3.2422893E0,-6.7637258E0,-7.361984E-1,5.0571647E0,4.1086736E-1,5.648378E0,1.0905523E1,2.2311616E0,7.496521E0,1.5442307E-1,3.9981458E0,6.285653E0,1.4179245E0,4.0097007E-1,1.3178661E1,7.79014E0,1.4948711E1,-1.4000604E0,4.602501E0,4.2941362E-1,1.6471484E0,-8.9289445E-1,2.822716E-1,2.4476802E-2,-4.5656416E-1,-1.0690985E-1,3.5231847E-1,-1.1966647E0,-6.4958614E-1,-3.183172E-1,3.0098835E-1,4.2570242E-1,1.4300362E0,-5.2426588E-2,-4.648659E-1,1.2537722E-1,8.900146E-1,-9.2978495E-1,-1.0968894E-1,1.897708E-1,-2.6815382E-1,3.1633666E-1,7.910866E-1,1.8149845E-1,-2.71119E-1,1.67087E-1,7.4978924E-1,1.192212E0,4.7002956E-1,8.911645E-1,1.2366138E-1,2.747504E-1,8.9352953E-1,-9.612821E-2,3.100662E-1,1.04212545E-1,5.76691E-1,6.91593E-1,-1.2691097E-1,1.0028132E0,1.665094E0,8.97381E-1,3.4830543E-1,8.833772E-1,1.7364371E0,-4.9964505E-1,2.5463447E-1,5.032914E-1,1.2252178E-1],"categories":[],"categories_nodes":[],"categories_segments":[],"categories_sizes":[],"default_left":[0,0,0,0,0,0,0,0,0,0,0,0,0,0,0,0,0,0,0,0,0,0,0,0,0,0,0,0,0,0,0,0,0,0,0,0,0,0,0,0,0,0,0,0,0,0,0,0,0,0,0,0,0,0,0,0,0,0,0,0,0,0,0,0,0,0,0,0,0,0,0,0,0,0,0,0,0,0,0,0,0,0,0,0,0,0,0,0,0,0,0,0,0,0,0,0,0,0,0,0,0,0,0,0,0,0,0],"id":12,"left_children":[1,3,5,7,9,11,13,15,17,19,21,23,25,27,29,31,33,35,37,39,41,43,45,47,49,51,-1,53,55,57,-1,59,61,63,65,67,69,71,73,75,77,79,81,83,85,87,89,91,93,95,-1,-1,97,99,101,103,105,-1,-1,-1,-1,-1,-1,-1,-1,-1,-1,-1,-1,-1,-1,-1,-1,-1,-1,-1,-1,-1,-1,-1,-1,-1,-1,-1,-1,-1,-1,-1,-1,-1,-1,-1,-1,-1,-1,-1,-1,-1,-1,-1,-1,-1,-1,-1,-1,-1,-1],"loss_changes":[1.4377916E4,1.0197491E4,2.9342822E3,7.2477793E3,4.3220615E3,1.7169131E3,8.3148926E2,1.935791E3,3.561268E3,3.1460952E3,1.2140581E3,1.1142312E3,1.27573E2,5.5326025E2,4.314795E1,1.6082793E3,5.2245703E2,1.3956494E3,2.40211E3,1.9403691E3,1.5501326E3,2.5109961E2,1.00907764E3,9.391057E2,2.6128638E2,6.920068E1,0E0,5.011963E2,1.1437266E2,2.2158691E1,0E0,7.13771E2,8.22647E2,2.1752487E1,4.4278906E2,1.0780892E3,7.722412E1,2.0362021E3,7.313904E2,1.0524758E3,9.991142E2,6.343037E2,7.76458E2,1.19888245E2,1.8367432E2,7.663347E2,3.4441943E2,3.7113956E2,7.730371E2,8.020087E1,0E0,0E0,5.18125E1,2.8483032E2,5.3409668E1,1.1207237E2,2.5553436E0,0E0,0E0,0E0,0E0,0E0,0E0,0E0,0E0,0E0,0E0,0E0,0E0,0E0,0E0,0E0,0E0,0E0,0E0,0E0,0E0,0E0,0E0,0E0,0E0,0E0,0E0,0E0,0E0,0E0,0E0,0E0,0E0,0E0,0E0,0E0,0E0,0E0,0E0,0E0,0E0,0E0,0E0,0E0,0E0,0E0,0E0,0E0,0E0,0E0,0E0],"parents":[2147483647,0,0,1,1,2,2,3,3,4,4,5,5,6,6,7,7,8,8,9,9,10,10,11,11,12,12,13,13,14,14,15,15,16,16,17,17,18,18,19,19,20,20,21,21,22,22,23,23,24,24,25,25,27,27,28,28,29,29,31,31,32,32,33,33,34,34,35,35,36,36,37,37,38,38,39,39,40,40,41,41,42,42,43,43,44,44,45,45,46,46,47,47,48,48,49,49,52,52,53,53,54,54,55,55,56,56],"right_children":[2,4,6,8,10,12,14,16,18,20,22,24,26,28,30,32,34,36,38,40,42,44,46,48,50,52,-1,54,56,58,-1,60,62,64,66,68,70,72,74,76,78,80,82,84,86,88,90,92,94,96,-1,-1,98,100,102,104,106,-1,-1,-1,-1,-1,-1,-1,-1,-1,-1,-1,-1,-1,-1,-1,-1,-1,-1,-1,-1,-1,-1,-1,-1,-1,-1,-1,-1,-1,-1,-1,-1,-1,-1,-1,-1,-1,-1,-1,-1,-1,-1,-1,-1,-1,-1,-1,-1,-1,-1],"split_conditions":[1E0,1E0,2.418999E0,1.3484789E0,2.2395256E0,2E0,4.6347237E0,2.0468166E1,-3.2609441E0,8.064835E0,-2.7109768E0,2E0,7.214445E7,2.1879229E1,1.8311401E1,5.274176E0,5.844959E-1,2E0,3.8306456E0,3.8323906E1,5.1545978E0,3.484405E1,1.3182964E1,1.4808333E1,2.051569E1,2.343549E0,2.5773114E-1,4.449688E1,2.4268145E1,3.872611E6,3.7247315E-1,7.7386246E1,-4.554705E0,5.8917606E5,2.536303E1,2.6480079E0,1.1728283E7,1E0,1.6139536E1,1.654552E0,6.0107275E5,1.7829739E1,2E0,2.6389573E0,6.719898E6,5.579038E4,1.1026597E1,1.3230804E1,6.308847E0,4.678836E6,1.4179245E0,4.0097007E-1,1E0,2E0,1.4315536E1,1.6851553E1,3.1685535E6,4.2941362E-1,1.6471484E0,-8.9289445E-1,2.822716E-1,2.4476802E-2,-4.5656416E-1,-1.0690985E-1,3.5231847E-1,-1.1966647E0,-6.4958614E-1,-3.183172E-1,3.0098835E-1,4.2570242E-1,1.4300362E0,-5.2426588E-2,-4.648659E-1,1.2537722E-1,8.900146E-1,-9.2978495E-1,-1.0968894E-1,1.897708E-1,-2.6815382E-1,3.1633666E-1,7.910866E-1,1.8149845E-1,-2.71119E-1,1.67087E-1,7.4978924E-1,1.192212E0,4.7002956E-1,8.911645E-1,1.2366138E-1,2.747504E-1,8.9352953E-1,-9.612821E-2,3.100662E-1,1.04212545E-1,5.76691E-1,6.91593E-1,-1.2691097E-1,1.0028132E0,1.665094E0,8.97381E-1,3.4830543E-1,8.833772E-1,1.7364371E0,-4.9964505E-1,2.5463447E-1,5.032914E-1,1.2252178E-1],"split_indices":[16,15,7,7,7,16,7,3,3,12,3,15,11,3,3,12,5,19,7,17,3,17,12,13,13,12,0,22,13,11,0,17,3,1,13,12,8,21,12,7,1,12,21,7,1,1,13,12,12,1,0,0,15,21,13,22,1,0,0,0,0,0,0,0,0,0,0,0,0,0,0,0,0,0,0,0,0,0,0,0,0,0,0,0,0,0,0,0,0,0,0,0,0,0,0,0,0,0,0,0,0,0,0,0,0,0,0],"split_type":[0,0,0,0,0,0,0,0,0,0,0,0,0,0,0,0,0,0,0,0,0,0,0,0,0,0,0,0,0,0,0,0,0,0,0,0,0,0,0,0,0,0,0,0,0,0,0,0,0,0,0,0,0,0,0,0,0,0,0,0,0,0,0,0,0,0,0,0,0,0,0,0,0,0,0,0,0,0,0,0,0,0,0,0,0,0,0,0,0,0,0,0,0,0,0,0,0,0,0,0,0,0,0,0,0,0,0],"sum_hessian":[2.399E3,1.99E3,4.09E2,1.205E3,7.85E2,3.04E2,1.05E2,4.31E2,7.74E2,5.62E2,2.23E2,2.81E2,2.3E1,8.5E1,2E1,3.33E2,9.8E1,1.89E2,5.85E2,2.66E2,2.96E2,5.4E1,1.69E2,2.59E2,2.2E1,2.1E1,2E0,7.4E1,1.1E1,1.9E1,1E0,1.07E2,2.26E2,3E0,9.5E1,1.78E2,1.1E1,5.2E2,6.5E1,7.3E1,1.93E2,1.21E2,1.75E2,1.7E1,3.7E1,1.16E2,5.3E1,1.11E2,1.48E2,1.4E1,8E0,2E0,1.9E1,6.1E1,1.3E1,6E0,5E0,1E0,1.8E1,1.02E2,5E0,4.4E1,1.82E2,1E0,2E0,7.1E1,2.4E1,3.4E1,1.44E2,2E0,9E0,1.87E2,3.33E2,4.9E1,1.6E1,5E1,2.3E1,8.2E1,1.11E2,7.4E1,4.7E1,1.21E2,5.4E1,6E0,1.1E1,3.1E1,6E0,1.4E1,1.02E2,1.3E1,4E1,8.1E1,3E1,5.6E1,9.2E1,1.3E1,1E0,1.2E1,7E0,4.7E1,1.4E1,5E0,8E0,3E0,3E0,4E0,1E0],"tree_param":{"num_deleted":"0","num_feature":"24","num_nodes":"107","size_leaf_vector":"1"}},{"base_weights":[8.02452E-2,-7.784012E-1,5.3051248E0,-1.7197137E0,3.725245E0,3.669005E0,1.1037162E1,-3.362397E0,8.21312E-1,3.0719273E0,1.0765789E1,2.807638E0,1.0351504E1,9.222813E0,1.8980764E0,-4.2658324E0,5.9931517E-1,-2.2692573E-1,5.373796E0,2.4184577E0,1.0291532E1,8.753999E0,1.3913969E1,1.8466607E0,7.1002636E0,1.1954855E1,-5.621643E-2,8.335392E0,2.022843E0,-3.3781078E0,-7.4684057E0,-2.7008894E-1,9.667233E0,-1.3475398E0,2.926377E0,-4.6865377E0,5.8282437E0,4.673785E0,6.0255444E-1,6.271558E0,1.4793868E0,1.4006653E-1,9.051633E0,1.4581683E1,3.9522743E-1,1.2643405E0,7.1742406E0,8.830835E0,1.2630702E0,5.6094855E-1,1.35779915E1,3.277447E-1,-3.3711407E-1,3.2977746E0,9.796889E0,-5.3750426E-1,-2.0500134E-1,-8.428456E-1,-7.5688526E-2,1.6319744E-1,-3.2984495E-1,6.84169E-1,1.3707116E0,-2.3196009E-1,2.2851005E-1,3.8783017E-1,-2.8338617E-1,-6.702871E-1,2.6975632E-1,4.3024117E-1,8.059147E-1,3.3043453E-1,8.347959E-1,-6.928108E-2,3.9797327E-1,7.4284106E-1,9.438982E-2,1.8021546E-1,9.338334E-1,4.0445995E-1,1.5393244E0,3.5599497E-1,-3.551326E-3,1.9178422E-1,8.4480906E-1,6.2616986E-1,1.1169188E0,-3.4800583E-1,4.4705805E-1,1.450828E0,6.2297696E-1,1.8479919E-2,7.936438E-1,1.0728554E0,5.370045E-1],"categories":[],"categories_nodes":[],"categories_segments":[],"categories_sizes":[],"default_left":[0,0,0,0,0,0,0,0,0,0,0,0,0,0,0,0,0,0,0,0,0,0,0,0,0,0,0,0,0,0,0,0,0,0,0,0,0,0,0,0,0,0,0,0,0,0,0,0,0,0,0,0,0,0,0,0,0,0,0,0,0,0,0,0,0,0,0,0,0,0,0,0,0,0,0,0,0,0,0,0,0,0,0,0,0,0,0,0,0,0,0,0,0,0,0],"id":13,"left_children":[1,3,5,7,9,11,13,15,17,19,21,23,25,27,-1,29,31,33,35,37,39,41,43,45,47,49,51,53,-1,55,57,59,61,63,65,67,69,71,73,75,-1,-1,77,79,-1,81,83,85,87,-1,89,-1,-1,91,93,-1,-1,-1,-1,-1,-1,-1,-1,-1,-1,-1,-1,-1,-1,-1,-1,-1,-1,-1,-1,-1,-1,-1,-1,-1,-1,-1,-1,-1,-1,-1,-1,-1,-1,-1,-1,-1,-1,-1,-1],"loss_changes":[1.0807197E4,8.777598E3,3.148127E3,7.1488213E3,1.6136255E3,1.5020554E3,9.058789E2,3.724874E3,3.2128333E3,1.5272634E3,6.820166E1,9.6454065E2,5.0128882E2,4.4668506E2,0E0,2.382795E3,1.532046E3,1.9403757E3,6.033733E2,1.238107E3,3.958999E2,3.3282104E1,8.884766E0,5.95889E2,4.232185E2,1.916189E2,6.630294E1,4.0943994E2,0E0,1.7526396E3,1.1727627E3,1.0306868E3,1.00272705E2,1.4354154E3,8.005875E2,1.07414246E2,3.77208E2,6.516763E2,7.42078E2,9.160144E1,0E0,0E0,2.4739624E1,1.4703613E1,0E0,5.2828674E2,1.1101935E2,1.2831079E2,1.8290785E2,0E0,4.6335938E1,0E0,0E0,2.1513402E2,1.3210645E2,0E0,0E0,0E0,0E0,0E0,0E0,0E0,0E0,0E0,0E0,0E0,0E0,0E0,0E0,0E0,0E0,0E0,0E0,0E0,0E0,0E0,0E0,0E0,0E0,0E0,0E0,0E0,0E0,0E0,0E0,0E0,0E0,0E0,0E0,0E0,0E0,0E0,0E0,0E0,0E0],"parents":[2147483647,0,0,1,1,2,2,3,3,4,4,5,5,6,6,7,7,8,8,9,9,10,10,11,11,12,12,13,13,15,15,16,16,17,17,18,18,19,19,20,20,21,21,22,22,23,23,24,24,25,25,26,26,27,27,29,29,30,30,31,31,32,32,33,33,34,34,35,35,36,36,37,37,38,38,39,39,42,42,43,43,45,45,46,46,47,47,48,48,50,50,53,53,54,54],"right_children":[2,4,6,8,10,12,14,16,18,20,22,24,26,28,-1,30,32,34,36,38,40,42,44,46,48,50,52,54,-1,56,58,60,62,64,66,68,70,72,74,76,-1,-1,78,80,-1,82,84,86,88,-1,90,-1,-1,92,94,-1,-1,-1,-1,-1,-1,-1,-1,-1,-1,-1,-1,-1,-1,-1,-1,-1,-1,-1,-1,-1,-1,-1,-1,-1,-1,-1,-1,-1,-1,-1,-1,-1,-1,-1,-1,-1,-1,-1,-1],"split_conditions":[3.182045E0,1E0,5.2721095E0,1E0,2E0,2E0,7.665875E0,1.6513083E1,1.7829739E1,2E0,3.7059113E1,1E0,1.8425238E1,3E0,1.8980764E0,1.820092E1,1E0,3.733965E1,4.638526E0,1.15408745E1,1.6016727E1,8.947756E-1,3.5924144E7,1E0,2E0,6.450346E0,5.427951E6,4.949562E0,2.022843E0,4.5131023E1,2E0,1.4057591E1,2.0832071E0,2E0,3E0,2.399116E7,1E0,1E0,3.8929382E1,8.838221E6,1.4793868E0,1.4006653E-1,1.4137649E1,1.3595861E6,3.9522743E-1,7.6899133E0,1.2180877E0,9.27635E0,1.1265713E1,5.6094855E-1,2E0,3.277447E-1,-3.3711407E-1,1E0,1.8918052E0,-5.3750426E-1,-2.0500134E-1,-8.428456E-1,-7.5688526E-2,1.6319744E-1,-3.2984495E-1,6.84169E-1,1.3707116E0,-2.3196009E-1,2.2851005E-1,3.8783017E-1,-2.8338617E-1,-6.702871E-1,2.6975632E-1,4.3024117E-1,8.059147E-1,3.3043453E-1,8.347959E-1,-6.928108E-2,3.9797327E-1,7.4284106E-1,9.438982E-2,1.8021546E-1,9.338334E-1,4.0445995E-1,1.5393244E0,3.5599497E-1,-3.551326E-3,1.9178422E-1,8.4480906E-1,6.2616986E-1,1.1169188E0,-3.4800583E-1,4.4705805E-1,1.450828E0,6.2297696E-1,1.8479919E-2,7.936438E-1,1.0728554E0,5.370045E-1],"split_indices":[7,16,7,15,16,15,7,12,12,15,22,16,2,15,0,2,18,22,13,2,13,4,0,18,21,12,0,12,0,17,20,2,7,15,21,0,20,19,22,0,0,0,23,0,0,2,12,12,13,0,21,0,0,19,6,0,0,0,0,0,0,0,0,0,0,0,0,0,0,0,0,0,0,0,0,0,0,0,0,0,0,0,0,0,0,0,0,0,0,0,0,0,0,0,0],"split_type":[0,0,0,0,0,0,0,0,0,0,0,0,0,0,0,0,0,0,0,0,0,0,0,0,0,0,0,0,0,0,0,0,0,0,0,0,0,0,0,0,0,0,0,0,0,0,0,0,0,0,0,0,0,0,0,0,0,0,0,0,0,0,0,0,0,0,0,0,0,0,0,0,0,0,0,0,0,0,0,0,0,0,0,0,0,0,0,0,0,0,0,0,0,0,0],"sum_hessian":[2.407E3,2.068E3,3.39E2,1.711E3,3.57E2,2.65E2,7.4E1,1.039E3,6.72E2,3.28E2,2.9E1,2.36E2,2.9E1,6.2E1,1.2E1,8.46E2,1.93E2,5.47E2,1.25E2,3.02E2,2.6E1,2E1,9E0,1.94E2,4.2E1,2.5E1,4E0,5.9E1,3E0,6.64E2,1.82E2,1.77E2,1.6E1,4.04E2,1.43E2,5E0,1.2E2,1.34E2,1.68E2,1.5E1,1.1E1,1E0,1.9E1,8E0,1E0,1.76E2,1.8E1,3.2E1,1E1,6E0,1.9E1,2E0,2E0,1.4E1,4.5E1,2.64E2,4E2,1.59E2,2.3E1,1.09E2,6.8E1,1.1E1,5E0,3.19E2,8.5E1,1.23E2,2E1,4E0,1E0,7.3E1,4.7E1,9.9E1,3.5E1,1.22E2,4.6E1,1.2E1,3E0,1E0,1.8E1,1E0,7E0,6.3E1,1.13E2,4E0,1.4E1,1.7E1,1.5E1,4E0,6E0,1.6E1,3E0,9E0,5E0,3.6E1,9E0],"tree_param":{"num_deleted":"0","num_feature":"24","num_nodes":"95","size_leaf_vector":"1"}},{"base_weights":[9.7471505E-2,-1.5957835E0,2.2604482E0,-2.441962E0,2.5316765E0,5.3836064E0,9.3153286E-1,-4.083932E0,-2.2001106E-1,1.8406221E0,1.1081912E1,4.7097077E0,1.186724E1,1.3009684E-1,4.9247375E0,-3.0002337E0,-7.0639853E0,9.8444647E-1,-4.7706604E0,7.517929E-1,5.491745E0,1.427863E1,4.475366E0,3.933136E0,1.0014884E1,1.227916E1,1.6674234E-2,-1.428358E0,2.4672544E0,5.971739E0,-2.016491E0,-4.1086426E0,1.6147436E-1,-5.6203885E0,-1.0646112E1,2.7854393E0,-1.0764856E0,-6.633315E0,-1.5570312E0,2.1654832E0,-2.3890953E0,-4.376677E-1,6.4661975E0,7.6168853E-1,1.6997216E0,5.487839E-1,2.3440523E-1,2.6443508E0,7.312895E0,1.3397936E1,7.2530365E0,1.2557652E1,2.3799267E-1,-2.0670044E0,3.031793E0,1.2800508E0,6.4229712E0,7.074694E0,2.868231E0,-5.2212534E0,3.3076346E0,-6.161543E-1,-2.4725607E-1,-1.356751E-1,3.9103794E-1,-5.9814346E-1,2.4770935E-1,-2.4754517E-1,-1.153862E0,5.617049E-1,1.1045318E-1,-3.4050867E-2,-6.2463003E-1,-4.3289563E-1,-8.1355953E-1,7.895932E-2,-4.8329893E-1,-1.7030016E-1,3.0478364E-1,-2.8115118E-2,-5.2507854E-1,5.326581E-1,1.2985942E0,7.107755E-1,1.8978548E-1,6.239459E-1,1.0761302E0,5.980554E-1,1.5551479E0,8.4736985E-1,4.0576664E-1,1.2857332E0,2.3829842E-1,-9.264154E-2,-4.2982846E-1,-1.0496271E-1,5.172192E-1,4.593772E-1,-2.9804682E-2,7.1647185E-1,9.8417856E-2,6.2999713E-1,1.1291169E0,5.0274885E-1,1.14942126E-1,-7.4280185E-1,3.139459E-1,4.6880874E-1,-2.4875413E-1],"categories":[],"categories_nodes":[],"categories_segments":[],"categories_sizes":[],"default_left":[0,0,0,0,0,0,0,0,0,0,0,0,0,0,0,0,0,0,0,0,0,0,0,0,0,0,0,0,0,0,0,0,0,0,0,0,0,0,0,0,0,0,0,0,0,0,0,0,0,0,0,0,0,0,0,0,0,0,0,0,0,0,0,0,0,0,0,0,0,0,0,0,0,0,0,0,0,0,0,0,0,0,0,0,0,0,0,0,0,0,0,0,0,0,0,0,0,0,0,0,0,0,0,0,0,0,0,0,0],"id":14,"left_children":[1,3,5,7,9,11,13,15,17,19,21,23,25,27,29,31,33,35,37,39,41,43,45,47,49,51,-1,53,55,57,59,61,63,65,67,69,71,73,75,77,79,-1,81,-1,-1,-1,-1,83,85,87,89,91,-1,93,95,97,99,101,103,105,107,-1,-1,-1,-1,-1,-1,-1,-1,-1,-1,-1,-1,-1,-1,-1,-1,-1,-1,-1,-1,-1,-1,-1,-1,-1,-1,-1,-1,-1,-1,-1,-1,-1,-1,-1,-1,-1,-1,-1,-1,-1,-1,-1,-1,-1,-1,-1,-1],"loss_changes":[8.8081875E3,4.717657E3,4.3778213E3,4.0852837E3,1.3385984E3,1.3204424E3,2.3739802E3,2.0585918E3,2.6191638E3,8.4661743E2,2.951255E2,1.1430073E3,1.3772266E2,2.2581414E3,9.13209E2,1.6617808E3,8.2443066E2,1.40603E3,5.8825977E2,7.4225397E2,4.994995E2,6.9750244E1,2.2415009E0,1.0783196E3,2.3918921E2,4.7306152E1,0E0,1.0658936E3,1.156446E3,3.493955E2,3.073335E2,1.1636738E3,7.110741E2,3.7733838E2,3.214707E2,9.552499E2,6.713341E2,1.8287451E2,2.9593893E2,3.9772797E2,3.1220242E2,0E0,2.6517993E2,0E0,0E0,0E0,0E0,5.995824E2,1.882688E2,1.4659839E2,5.142688E1,5.1688477E1,0E0,8.2567957E2,4.1601453E2,1.0054093E3,2.2289868E2,1.8692749E2,1.0556186E2,2.2627133E2,6.7661575E1,0E0,0E0,0E0,0E0,0E0,0E0,0E0,0E0,0E0,0E0,0E0,0E0,0E0,0E0,0E0,0E0,0E0,0E0,0E0,0E0,0E0,0E0,0E0,0E0,0E0,0E0,0E0,0E0,0E0,0E0,0E0,0E0,0E0,0E0,0E0,0E0,0E0,0E0,0E0,0E0,0E0,0E0,0E0,0E0,0E0,0E0,0E0,0E0],"parents":[2147483647,0,0,1,1,2,2,3,3,4,4,5,5,6,6,7,7,8,8,9,9,10,10,11,11,12,12,13,13,14,14,15,15,16,16,17,17,18,18,19,19,20,20,21,21,22,22,23,23,24,24,25,25,27,27,28,28,29,29,30,30,31,31,32,32,33,33,34,34,35,35,36,36,37,37,38,38,39,39,40,40,42,42,47,47,48,48,49,49,50,50,51,51,53,53,54,54,55,55,56,56,57,57,58,58,59,59,60,60],"right_children":[2,4,6,8,10,12,14,16,18,20,22,24,26,28,30,32,34,36,38,40,42,44,46,48,50,52,-1,54,56,58,60,62,64,66,68,70,72,74,76,78,80,-1,82,-1,-1,-1,-1,84,86,88,90,92,-1,94,96,98,100,102,104,106,108,-1,-1,-1,-1,-1,-1,-1,-1,-1,-1,-1,-1,-1,-1,-1,-1,-1,-1,-1,-1,-1,-1,-1,-1,-1,-1,-1,-1,-1,-1,-1,-1,-1,-1,-1,-1,-1,-1,-1,-1,-1,-1,-1,-1,-1,-1,-1,-1],"split_conditions":[1.7740326E0,1E0,1.8547173E-1,1E0,2E0,5.2721095E0,1E0,2E0,2.153137E1,1E0,1.1380954E0,2E0,4.8644444E1,1E0,2.969845E1,1E0,1.7060774E1,7.11E2,1E0,1.5371683E1,5.30298E6,7.8344756E-1,1.4626356E7,1E0,1.6540745E5,9.5533146E8,1.6674234E-2,4.145376E0,3.5133536E0,7.63E2,1.810951E1,4.5131023E1,3.5728474E1,2E0,7.826077E-1,-1.4710383E0,3E0,1.119486E0,1.414557E0,1.1558042E1,1.42086E0,-4.376677E-1,2E0,7.6168853E-1,1.6997216E0,5.487839E-1,2.3440523E-1,8.6082655E-1,2E0,1.3071212E1,7.35E2,4.633645E7,2.3799267E-1,1.4905201E0,1.619945E1,4.2145384E5,7.94E2,2.8723427E8,1E0,5.594525E1,1.2978676E6,-6.161543E-1,-2.4725607E-1,-1.356751E-1,3.9103794E-1,-5.9814346E-1,2.4770935E-1,-2.4754517E-1,-1.153862E0,5.617049E-1,1.1045318E-1,-3.4050867E-2,-6.2463003E-1,-4.3289563E-1,-8.1355953E-1,7.895932E-2,-4.8329893E-1,-1.7030016E-1,3.0478364E-1,-2.8115118E-2,-5.2507854E-1,5.326581E-1,1.2985942E0,7.107755E-1,1.8978548E-1,6.239459E-1,1.0761302E0,5.980554E-1,1.5551479E0,8.4736985E-1,4.0576664E-1,1.2857332E0,2.3829842E-1,-9.264154E-2,-4.2982846E-1,-1.0496271E-1,5.172192E-1,4.593772E-1,-2.9804682E-2,7.1647185E-1,9.8417856E-2,6.2999713E-1,1.1291169E0,5.0274885E-1,1.14942126E-1,-7.4280185E-1,3.139459E-1,4.6880874E-1,-2.4875413E-1],"split_indices":[7,16,3,20,16,7,16,21,3,19,10,15,13,15,3,19,3,14,15,3,8,10,11,19,1,8,0,7,7,14,13,17,22,15,4,3,21,10,6,22,10,0,15,0,0,0,0,6,19,13,14,0,0,10,13,1,14,9,21,17,1,0,0,0,0,0,0,0,0,0,0,0,0,0,0,0,0,0,0,0,0,0,0,0,0,0,0,0,0,0,0,0,0,0,0,0,0,0,0,0,0,0,0,0,0,0,0,0,0],"split_type":[0,0,0,0,0,0,0,0,0,0,0,0,0,0,0,0,0,0,0,0,0,0,0,0,0,0,0,0,0,0,0,0,0,0,0,0,0,0,0,0,0,0,0,0,0,0,0,0,0,0,0,0,0,0,0,0,0,0,0,0,0,0,0,0,0,0,0,0,0,0,0,0,0,0,0,0,0,0,0,0,0,0,0,0,0,0,0,0,0,0,0,0,0,0,0,0,0,0,0,0,0,0,0,0,0,0,0,0,0],"sum_hessian":[2.403E3,1.348E3,1.055E3,1.119E3,2.29E2,3.14E2,7.41E2,6.43E2,4.76E2,2.13E2,1.6E1,2.86E2,2.8E1,6.18E2,1.23E2,4.73E2,1.7E2,3.77E2,9.9E1,1.65E2,4.8E1,1E1,6E0,2.51E2,3.5E1,2.7E1,1E0,3.71E2,2.47E2,1.07E2,1.6E1,3.5E2,1.23E2,1.23E2,4.7E1,2.01E2,1.76E2,6.2E1,3.7E1,1.14E2,5.1E1,4E0,4.4E1,4E0,6E0,3E0,3E0,1.83E2,6.8E1,1.4E1,2.1E1,2.6E1,1E0,3.25E2,4.6E1,1.91E2,5.6E1,7.8E1,2.9E1,1E1,6E0,1.54E2,1.96E2,8.8E1,3.5E1,1.18E2,5E0,5E0,4.2E1,7.4E1,1.27E2,1.55E2,2.1E1,2.6E1,3.6E1,2.2E1,1.5E1,2.1E1,9.3E1,3E1,2.1E1,3.9E1,5E0,2.5E1,1.58E2,5.4E1,1.4E1,4E0,1E1,1.4E1,7E0,2.5E1,1E0,2.16E2,1.09E2,1.6E1,3E1,6.1E1,1.3E2,4.9E1,7E0,6.8E1,1E1,1.2E1,1.7E1,8E0,2E0,5E0,1E0],"tree_param":{"num_deleted":"0","num_feature":"24","num_nodes":"109","size_leaf_vector":"1"}},{"base_weights":[2.9785302E-2,-7.557572E-1,3.924451E0,5.553094E-1,-2.8957746E0,3.2276068E0,1.0202464E1,-1.4882296E-2,6.3857822E0,-3.9948065E0,5.5944122E-2,1.0556791E1,2.7734437E0,1.3257315E0,8.586578E0,1.0413048E0,-2.7589164E0,6.953487E0,-4.337883E-2,-1.6217564E0,-5.4525533E0,1.4430871E0,-2.6993246E0,6.842521E0,1.4748871E0,2.1234322E0,8.675801E0,1.047679E1,6.3959823E0,3.206377E0,-3.8380566E-1,-5.2312646E0,-1.5388077E0,1.1009384E1,6.1831236E0,-1.7944435E0,1.4230715E0,-9.425262E-1,-6.9314227E0,-7.4766273E0,-4.203334E0,9.1588175E-1,1.1253833E1,-3.8610828E0,3.2375963E0,7.9091E0,6.508916E-1,2.8275182E0,-1.6366104E0,9.994302E0,2.1623971E0,1.1087313E1,1.2700024E-1,1.2134285E-1,6.6605906E0,9.397096E-1,2.727453E-1,3.1729573E-1,-1.2016155E-1,-6.1258453E-1,4.8497315E-2,1.0516604E-2,-3.6211276E-1,1.2782667E0,2.9371938E-1,7.823939E-1,4.5853075E-1,-2.232111E-1,-2.1886826E-3,1.925554E-1,-5.446701E-2,-3.4897324E-2,-6.962273E-1,-2.593921E-1,-9.3609965E-1,1.1756831E-1,-7.978594E-1,-3.686256E-1,-9.34339E-1,4.3467113E-1,1.9673798E-2,4.5238447E-1,1.5170363E0,1.6432637E-1,-5.017955E-1,-3.3177367E-1,4.1351482E-1,8.6923057E-1,3.8520813E-3,8.712635E-2,1.0507393E-2,1.5013298E-1,5.022667E-1,1.4892225E-1,-4.5792723E-1,1.1448269E-1,1.0279659E0,3.7957765E-2,6.4296573E-1,4.327236E-1,1.1923032E0,1.397049E-1,6.936769E-1],"categories":[],"categories_nodes":[],"categories_segments":[],"categories_sizes":[],"default_left":[0,0,0,0,0,0,0,0,0,0,0,0,0,0,0,0,0,0,0,0,0,0,0,0,0,0,0,0,0,0,0,0,0,0,0,0,0,0,0,0,0,0,0,0,0,0,0,0,0,0,0,0,0,0,0,0,0,0,0,0,0,0,0,0,0,0,0,0,0,0,0,0,0,0,0,0,0,0,0,0,0,0,0,0,0,0,0,0,0,0,0,0,0,0,0,0,0,0,0,0,0,0,0],"id":15,"left_children":[1,3,5,7,9,11,13,15,17,19,21,23,25,-1,27,29,31,33,35,37,39,41,43,45,-1,47,49,51,53,55,57,59,61,63,65,67,69,71,73,75,77,79,81,83,85,87,89,91,93,95,97,99,-1,-1,101,-1,-1,-1,-1,-1,-1,-1,-1,-1,-1,-1,-1,-1,-1,-1,-1,-1,-1,-1,-1,-1,-1,-1,-1,-1,-1,-1,-1,-1,-1,-1,-1,-1,-1,-1,-1,-1,-1,-1,-1,-1,-1,-1,-1,-1,-1,-1,-1],"loss_changes":[7.3823003E3,5.635465E3,1.7388633E3,4.1424062E3,2.4754214E3,1.1890059E3,8.36167E1,3.2952434E3,4.05437E2,1.9145312E3,7.988613E2,2.2606128E2,1.3090413E3,0E0,5.30708E1,2.5343994E3,9.451743E2,2.5062793E2,2.8232117E1,7.616485E2,8.3838086E2,7.0863947E2,4.9530923E2,8.070221E1,0E0,8.332616E2,2.7037793E2,6.4612305E1,1.3859436E1,9.409221E2,1.4465554E3,5.3478955E2,7.295392E2,1.7716895E2,1.9483618E2,3.8300972E0,6.981324E0,6.7644775E2,2.2863708E2,5.739917E2,5.369868E2,3.2729034E2,1.1587903E2,3.8394745E2,8.432434E1,6.747235E1,2.693014E-1,7.61011E2,4.6673303E2,5.8938965E1,5.081372E1,2.185022E1,0E0,0E0,1.2114136E1,0E0,0E0,0E0,0E0,0E0,0E0,0E0,0E0,0E0,0E0,0E0,0E0,0E0,0E0,0E0,0E0,0E0,0E0,0E0,0E0,0E0,0E0,0E0,0E0,0E0,0E0,0E0,0E0,0E0,0E0,0E0,0E0,0E0,0E0,0E0,0E0,0E0,0E0,0E0,0E0,0E0,0E0,0E0,0E0,0E0,0E0,0E0,0E0],"parents":[2147483647,0,0,1,1,2,2,3,3,4,4,5,5,6,6,7,7,8,8,9,9,10,10,11,11,12,12,14,14,15,15,16,16,17,17,18,18,19,19,20,20,21,21,22,22,23,23,25,25,26,26,27,27,28,28,29,29,30,30,31,31,32,32,33,33,34,34,35,35,36,36,37,37,38,38,39,39,40,40,41,41,42,42,43,43,44,44,45,45,46,46,47,47,48,48,49,49,50,50,51,51,54,54],"right_children":[2,4,6,8,10,12,14,16,18,20,22,24,26,-1,28,30,32,34,36,38,40,42,44,46,-1,48,50,52,54,56,58,60,62,64,66,68,70,72,74,76,78,80,82,84,86,88,90,92,94,96,98,100,-1,-1,102,-1,-1,-1,-1,-1,-1,-1,-1,-1,-1,-1,-1,-1,-1,-1,-1,-1,-1,-1,-1,-1,-1,-1,-1,-1,-1,-1,-1,-1,-1,-1,-1,-1,-1,-1,-1,-1,-1,-1,-1,-1,-1,-1,-1,-1,-1,-1,-1],"split_conditions":[1E0,1.2991407E1,2E0,1E0,1E0,-1.6828371E1,1.642497E0,2E0,6.0537553E0,8.740319E0,1.5264422E1,8.695547E6,1E0,1.3257315E0,8.0897655E6,9.555047E0,4.03203E1,6.746867E4,-3.42737E0,3.642723E1,4.589949E1,4.9907222E8,3.301071E1,4.817659E7,1.4748871E0,1.9776455E1,1.7004318E0,3E0,8.947756E-1,7.672926E-1,9.017551E-1,2E0,7.17E2,1.7415596E0,-1.2421519E0,1.4866756E1,1.0880064E1,3E0,2.565047E0,8.024606E-1,3E0,9.223084E-1,2.172784E1,3.7966022E1,9.159688E-1,2.8214893E0,3.470899E5,1E0,6.6068826E0,1.8883502E6,1.7392948E7,1.1440716E0,1.2700024E-1,1.2134285E-1,1.4137649E1,9.397096E-1,2.727453E-1,3.1729573E-1,-1.2016155E-1,-6.1258453E-1,4.8497315E-2,1.0516604E-2,-3.6211276E-1,1.2782667E0,2.9371938E-1,7.823939E-1,4.5853075E-1,-2.232111E-1,-2.1886826E-3,1.925554E-1,-5.446701E-2,-3.4897324E-2,-6.962273E-1,-2.593921E-1,-9.3609965E-1,1.1756831E-1,-7.978594E-1,-3.686256E-1,-9.34339E-1,4.3467113E-1,1.9673798E-2,4.5238447E-1,1.5170363E0,1.6432637E-1,-5.017955E-1,-3.3177367E-1,4.1351482E-1,8.6923057E-1,3.8520813E-3,8.712635E-2,1.0507393E-2,1.5013298E-1,5.022667E-1,1.4892225E-1,-4.5792723E-1,1.1448269E-1,1.0279659E0,3.7957765E-2,6.4296573E-1,4.327236E-1,1.1923032E0,1.397049E-1,6.936769E-1],"split_indices":[16,3,16,18,19,3,3,21,5,2,2,0,18,0,0,2,17,1,3,3,17,9,13,11,0,2,6,21,4,4,6,20,14,6,3,2,3,21,2,5,21,4,13,23,6,4,1,20,3,0,0,4,0,0,23,0,0,0,0,0,0,0,0,0,0,0,0,0,0,0,0,0,0,0,0,0,0,0,0,0,0,0,0,0,0,0,0,0,0,0,0,0,0,0,0,0,0,0,0,0,0,0,0],"split_type":[0,0,0,0,0,0,0,0,0,0,0,0,0,0,0,0,0,0,0,0,0,0,0,0,0,0,0,0,0,0,0,0,0,0,0,0,0,0,0,0,0,0,0,0,0,0,0,0,0,0,0,0,0,0,0,0,0,0,0,0,0,0,0,0,0,0,0,0,0,0,0,0,0,0,0,0,0,0,0,0,0,0,0,0,0,0,0,0,0,0,0,0,0,0,0,0,0,0,0,0,0,0,0],"sum_hessian":[2.411E3,2.007E3,4.04E2,1.245E3,7.62E2,3.65E2,3.9E1,1.135E3,1.1E2,5.55E2,2.07E2,2E1,3.45E2,1.1E1,2.8E1,8.2E2,3.15E2,1.01E2,9E0,2.12E2,3.43E2,1.38E2,6.9E1,1.2E1,8E0,3.12E2,3.3E1,1.3E1,1.5E1,3.25E2,4.95E2,1.03E2,2.12E2,1.4E1,8.7E1,4E0,5E0,1.89E2,2.3E1,1.29E2,2.14E2,1.32E2,6E0,5.8E1,1.1E1,1E1,2E0,2.63E2,4.9E1,2.7E1,6E0,1.2E1,1E0,1E0,1.4E1,2.2E1,3.03E2,9.2E1,4.03E2,8.9E1,1.4E1,1.19E2,9.3E1,1.1E1,3E0,4.1E1,4.6E1,3E0,1E0,4E0,1E0,1.73E2,1.6E1,9E0,1.4E1,7E0,1.22E2,1.96E2,1.8E1,2.2E1,1.1E2,3E0,3E0,1E1,4.8E1,1E0,1E1,9E0,1E0,1E0,1E0,1.65E2,9.8E1,2.4E1,